encog,BasicNetwork,java,3.0.0,1,1404915925388
[BASIC]
[BASIC:PARAMS]
[BASIC:NETWORK]
beginTraining=0
connectionLimit=0
contextTargetOffset=0,0,0
contextTargetSize=0,0,0
endTraining=2
hasContext=f
inputCount=944
layerCounts=7,49,944
layerFeedCounts=7,49,944
layerContextCount=0,0,0
layerIndex=0,7,56
output=0,0,0,0,0,0,0,0,0,0,0,0,0,0,0,0,0,0,0,0,0,0,0,0,0,0,0,0,0,0,0,0,0,0,0,0,0,0,0,0,0,0,0,0,0,0,0,0,0,0,0,0,0,0,0,0,0,0,0,0,0,0,0,0,0,0,0,0,0,0,0,0,0,0,0,0,0,0,0,0,0,0,0,0,0,0,0,0,0,0,0,0,0,0,0,0,0,0,0,0,0,0,0,0,0,0,0,0,0,0,0,0,0,0,0,0,0,0,0,0,0,0,0,0,0,0,0,0,0,0,0,0,0,0,0,0,0,0,0,0,0,0,0,0,0,0,0,0,0,0,0,0,0,0,0,0,0,0,0,0,0,0,0,0,0,0,0,0,0,0,0,0,0,0,0,0,0,0,0,0,0,0,0,0,0,0,0,0,0,0,0,0,0,0,0,0,0,0,0,0,0,0,0,0,0,0,0,0,0,0,0,0,0,0,0,0,0,0,0,0,0,0,0,0,0,0,0,0,0,0,0,0,0,0,0,0,0,0,0,0,0,0,0,0,0,0,0,0,0,0,0,0,0,0,0,0,0,0,0,0,0,0,0,0,0,0,0,0,0,0,0,0,0,0,0,0,0,0,0,0,0,0,0,0,0,0,0,0,0,0,0,0,0,0,0,0,0,0,0,0,0,0,0,0,0,0,0,0,0,0,0,0,0,0,0,0,0,0,0,0,0,0,0,0,0,0,0,0,0,0,0,0,0,0,0,0,0,0,0,0,0,0,0,0,0,0,0,0,0,0,0,0,0,0,0,0,0,0,0,0,0,0,0,0,0,0,0,0,0,0,0,0,0,0,0,0,0,0,0,0,0,0,0,0,0,0,0,0,0,0,0,0,0,0,0,0,0,0,0,0,0,0,0,0,0,0,0,0,0,0,0,0,0,0,0,0,0,0,0,0,0,0,0,0,0,0,0,0,0,0,0,0,0,0,0,0,0,0,0,0,0,0,0,0,0,0,0,0,0,0,0,0,0,0,0,0,0,0,0,0,0,0,0,0,0,0,0,0,0,0,0,0,0,0,0,0,0,0,0,0,0,0,0,0,0,0,0,0,0,0,0,0,0,0,0,0,0,0,0,0,0,0,0,0,0,0,0,0,0,0,0,0,0,0,0,0,0,0,0,0,0,0,0,0,0,0,0,0,0,0,0,0,0,0,0,0,0,0,0,0,0,0,0,0,0,0,0,0,0,0,0,0,0,0,0,0,0,0,0,0,0,0,0,0,0,0,0,0,0,0,0,0,0,0,0,0,0,0,0,0,0,0,0,0,0,0,0,0,0,0,0,0,0,0,0,0,0,0,0,0,0,0,0,0,0,0,0,0,0,0,0,0,0,0,0,0,0,0,0,0,0,0,0,0,0,0,0,0,0,0,0,0,0,0,0,0,0,0,0,0,0,0,0,0,0,0,0,0,0,0,0,0,0,0,0,0,0,0,0,0,0,0,0,0,0,0,0,0,0,0,0,0,0,0,0,0,0,0,0,0,0,0,0,0,0,0,0,0,0,0,0,0,0,0,0,0,0,0,0,0,0,0,0,0,0,0,0,0,0,0,0,0,0,0,0,0,0,0,0,0,0,0,0,0,0,0,0,0,0,0,0,0,0,0,0,0,0,0,0,0,0,0,0,0,0,0,0,0,0,0,0,0,0,0,0,0,0,0,0,0,0,0,0,0,0,0,0,0,0,0,0,0,0,0,0,0,0,0,0,0,0,0,0,0,0,0,0,0,0,0,0,0,0,0,0,0,0,0,0,0,0,0,0,0,0,0,0,0,0,0,0,0,0,0,0,0,0,0,0,0,0,0,0,0,0,0,0,0,0,0,0,0,0,0,0,0,0,0,0,0,0,0,0,0,0,0,0,0,0,0,0,0,0,0,0,0,0,0,0,0,0,0,0,0,0,0,0,0,0,0,0,0,0,0,0,0,0,0,0,0,0,0,0,0,0,0,0,0,0,0,0,0,0,0,0,0,0,0,0,0,0,0,0,0,0,0,0,0,0,0,0,0,0,0,0,0,0,0,0,0,0,0,0,0,0,0,0,0,0,0,0,0,0,0,0,0,0,0,0,0,0,0,0,0,0,0,0,0,0,0,0,0,0,0,0,0,0,0,0,0,0,0,0,0,0,0,0,0,0,0,0,0,0,0,0,0,0,0,0,0,0,0,0,0,0,0,0,0,0,0,0,0,0,0,0,0,0,0,0,0
outputCount=7
weightIndex=0,343,46599
weights=-0.671153170836236,1.0286891612915472,-0.5199601704503407,142.36640443834233,-0.007592128794071371,0.08700440445278405,-0.1520208443606263,-0.024747817724325227,0.05980007082372396,0.15134345060289256,-0.3206995771641664,0.9962526074409381,-0.3643404527787128,-0.0007322001362855945,-0.30557518185248556,0.008217117745348924,-0.5108619026045323,-0.012420678183752362,0.06390986070845428,-0.5317121211520452,-0.16585880737791545,-2.2495098062622465,25.500386513216235,0.05461832396477953,-1.0468616840696303,-9.285709283763753,0.09611875307009618,3.299271983374367,0.05245847521839326,-0.3778372445484569,-8.49743459366732,-0.1687525448606187,0.04658164580134265,-0.7301524747219058,0.956153305652582,-0.12152923314132276,-0.0006878331990737977,0.8203602509200758,3.8911391667487574,-0.27563562048400675,-0.05855623983175731,0.06592139593764301,0.6288184964399941,-0.0858729749151238,-0.2430064331259925,-0.5285487339778482,-0.06420819544685946,-0.1532799130963432,-0.007391636410679202,-0.19563827322394264,0.03135856660747356,-3.717739141458886,-124.67649724993441,1.3611287706638278,-0.010974384223705488,0.0379788174014098,0.02234117638775085,0.7190626949746233,-0.24488067597986696,-0.22952745353153398,-1.6510060188878983,-0.19604375976715696,-0.12554199351933593,0.23068672420271918,-0.19471117411622585,0.1947287682729332,0.013187879885380631,-0.46361693959539235,-0.18296932517796813,-0.04560491856724479,-0.45953915823523267,-7.744553298104497,0.27599694256617313,0.4050418787119832,-1.1515313832704177,-0.20634048022910167,1.0160730774669802,-0.07595706026622204,0.4074592244149607,-2.6909386924552634,-0.03849581893127788,-0.19408351550227304,0.3958576894284712,-1.085009094026224,-0.08499819093667559,-0.10771442220547899,-0.832130285712442,-0.06126171596588832,-0.07538673870689169,-0.029363269560926095,-0.104320181266002,-2.088835972412223,-2.8836119281368924,1.3360084822015472,-0.9083186596314954,-0.09922230158432062,1.3731658917557903,-0.12143080502540764,0.06850114477072249,-8.363787442450528,1.150678507227395,-94.5973901942456,-0.10372825487469198,-0.12825725300947774,0.5324044378816658,-0.1666141030603497,-0.01929008163575506,-0.18658984577824422,0.16048632757926612,-1.0864278996190688,0.13647539947452003,-0.05690538228553895,-0.05558349562658515,-0.2118736014204835,0.13472055349266493,-0.0638995233626387,-0.1451349408337273,1.2030969209610431,0.01654959475006804,-8.540683944471695,-18.58493894747214,-0.07353008113139624,0.7700429896712063,1.0398525908934801,-0.23426652731177447,-364.6175509517557,0.26090451619723504,-0.15717206214396054,2.7715288568820706,-0.08064655788893563,-0.03296406613365472,-0.11508869219415553,-1.1736690210114793,-0.007038572345159979,-0.14064945039286478,1.2771854010982233,-3.662579612571947,0.4732012106238837,-0.11362646520533204,-0.07073344436641067,-0.23146561395648504,7.993952735265175,-0.2669584001929447,0.39919631571776293,0.010701863873830047,-2.879435292262706,-0.20938358466969517,-0.30272980234354824,-0.39939814049367767,0.02625125658988821,11.242245703334344,-0.2214242686428444,-0.14284169945787223,-0.30243780048217456,-0.17076501486391032,-0.11932779615976752,-0.15108799099403145,-0.21342659887162335,1.5121033356852869,0.07050057445138365,-0.0552851818595498,-0.1948142034913405,0.016728369923822244,-0.29261225744715813,-0.12850759711639484,0.09738963824638355,-0.09763558150771004,-0.2550138751642671,1.6204815527960512,-1.349267107633073,-0.6374203549214196,-0.14954968515864916,-1.539109186356,-0.03099194866535614,0.6662895712861631,-0.47747624494256874,0.03144262545730338,-2.6491861129143732,-0.1392814654751981,-0.18918190428189793,0.1018228440143108,0.8197702597701456,-0.0016686203832677853,-0.07142610308306517,-39.78695839349326,-4.484401720507837,-0.137177280886407,-0.12143644618484706,-0.1899273022613288,0.14528592048523656,-0.21983196629510648,-0.2961791300935486,-0.13890853128868558,0.0569165083605928,-0.1376063704511419,-0.1512342789667395,0.231696905352065,-466.01844802237576,-0.2894309546229834,-40.03823215101248,0.020069276613304543,-0.22012898601465966,-0.0776272486133048,0.024635608409262155,-0.21959753288238504,0.5371270061906024,0.26788829211901205,-0.841506385868163,-0.12200146481865913,-0.1712731309763952,-0.15299492204695997,0.5110219616791835,0.16751118950758428,-0.20577684207198307,-0.1666875552202332,0.03478875307393231,-0.09889750423745632,-0.43285934756921157,-5.455544790407338,-0.2544183466436897,0.2551024073146803,-0.04511340873838049,-0.17584828958472484,-254.0555978854846,-0.08998539560588276,-0.35787061039258106,-0.5896466284493835,-0.1857165834248983,-0.15831004784214944,-0.2948393174807175,-0.36427211874446647,-0.10481217344503374,0.06684699791588015,-1.3067025919669706,-2.202612224409412,0.005248039354150071,-0.18254240906282795,-0.18776845049672997,0.14346585961362723,-0.39927393499547,-0.10737815925754413,0.06964033910856465,-0.10578913496738455,-0.6048103954479203,0.127141468859819,0.01098292073980231,-0.8159837179295476,0.27562661966541174,-2.38273273957546,-1.0755807915781308,-0.12603855952016144,-0.0066934925591658305,-0.18241782856630506,-1.0100020897418192,-0.16289768495851367,-0.10650284246114461,0.18195668677428004,-0.1052995709451788,-0.11327085209722892,0.06804966346233735,-0.018081653975057576,-0.5077660627489238,-0.19847219887205425,0.1260807500098885,-0.07130543306717581,-0.07164210974785477,-0.265583920093466,-2.1506306058733133,-0.18093302266285302,-0.5241629305900113,-10.840598811494386,0.1810699004287558,-9.676945791512093,-0.15018711407191107,0.0716054260092337,-22.630981871204366,0.026302255730506777,-0.2277721391652367,-0.024333570359394038,0.3414951593292159,-0.14029669329204433,-0.20556576927735382,-0.0314953681253575,-2.9335079098004693,-0.052499728892485845,-0.17617974087464805,-0.09760092650245927,0.0035452370241769956,-0.0018914690638093421,0.014062569714433837,-0.047250808954281985,-0.35417105795839465,1.802133724859234,-0.18183785626843652,0.04019214490534417,-7.465791154757882,0.47451464297713536,-39.8253046464606,-0.2284241059453425,0.013675967157747585,-0.10410102691541853,-0.014251600624630276,-0.3054199625918116,-0.15698804600390434,-0.06930272172603037,0.001967835079506784,-0.1287614796345318,0.01182648002258998,-0.06747814804006526,-0.027578007447254815,-0.2353517798624776,-0.03870078268845154,-0.34115900338352606,-0.11345507829498781,-0.22792172952553322,1.3299037501279611,-3.1098722933860627,-0.6082953892971684,-0.23254107415387348,36.36783571355368,-0.12902793036607044,-86.22890515302522,-0.7019994523807545,-0.018328525080890928,2.596682210397284,-0.06716365390233033,-0.08449266293859456,0.011575855625131522,0.13942687591333508,-0.09389787819890989,-0.24156963767583867,-7.963073819069231,-13.613697646667061,-0.08675525295031612,-0.13960984624908263,-0.28514703457664975,0.06261976491087955,-0.5193372623710785,0.04682112140327258,0.03852590854881271,-0.14166294329579604,-0.4122666772970454,-0.021296710175132724,0.15835300696477814,0.4945469168416234,-0.11283282989222375,0.6743556844304925,1.994217558788051,0.012137620298917358,0.043826723822601096,1.962200247209311,-0.13559642804920657,-0.20774574121012873,-0.13545985036658703,-41.679835015289214,-2.1400639216146797,-0.011025869579685056,-0.5698482227484298,-0.21852691988777384,0.09721203723337431,-0.4329439031571424,-0.2220792938582172,-0.0215145628245252,-0.2590235428860844,-0.25326905836923863,0.20560616480325838,0.31679352893486545,-0.32446666378856764,-0.2470695414540128,-0.2459513840503698,-0.5925288333116464,0.009871705213592015,5.322336105446855,2.35473168565295,6.84689035444762,0.05008646835435916,-0.1855883153186961,0.04519986782759213,0.7073559220089863,2.1051510369936084,-0.2567957415152964,-0.024621727656046786,1.2169444673483325,0.39118776358104423,0.2408603592405947,0.04408130091794562,-0.24030262298295477,-0.152200827527004,0.04122756118333358,0.6072019781569997,-0.27328874109506285,0.026597566878707193,0.004640024633559652,0.701258419241577,-1.8145157280228918,0.5626864822199242,0.26988911637269125,-0.6402577826098995,-0.46400289967271463,-2.4485596717565414,0.05398296003804192,0.3007769364545309,0.12111596205608846,0.6941288392312643,2.352003787760823,2.6668865636767123,-1.1836058710111055,0.060954802350506945,0.2398783094911553,-1.2382396821836825,-0.10189220549025335,-0.26375819090480257,-0.23337124097151338,-5.76400816733709,-0.7651731479490608,0.6900469635705734,-0.10995604134742415,-0.2756972899405972,0.3051832672516968,0.07967434430332239,-0.13699280235345507,2.825995553841895,-0.007685939007836701,-0.7664125739852707,-1.2213453892760264,0.702595211751605,-0.04186461566264879,-0.26842831583406523,-0.22198273420284012,-0.6329136133248628,-0.43786197897632007,-1.2046959331317977,1.2662167661903059,-0.2531229631183666,-4.9151655209885,-0.20158040116024295,-0.2692283861470981,-0.6661480437029093,0.28841322470570324,0.6764666664521218,31.92567569971451,-0.2200951808801043,0.1207354617365391,0.7475902841335471,-0.15287479858594075,-0.2796045724427765,-0.1755840356247866,-0.28039197246421027,0.19719533677682555,-0.10432708248363567,-0.24025159459793427,-0.07413281426561262,-0.08839974967010987,-0.23085312228659527,-0.20339914887011007,-0.05020002756074011,-0.25088983970750317,0.6937294627924768,-2.4365371091438064,-0.06439795444750553,-1.24284980176328,0.11986948394146099,0.6895235689842328,0.6588736069908683,-0.020222489393592755,-1.2442386775939145,0.5201033407805622,-0.15704853752298042,-6.762356156927172,-0.7890736225478859,-0.1534506605995262,-0.19372515553821545,-2.1088217321025136,-0.4399261888415408,0.67012357726907,1.2837826309362874,-0.18720871392852387,5.265399493067941,0.09874842004912616,-0.7534671612764511,0.8303900152683947,0.029472597565874826,-0.02904018513277273,-1.2424308587314654,-0.07543153724544394,-0.7430209644662323,-15.841876981958588,-1.773845155421879,-0.030885023552821744,-2.4380223745571366,-1.2072852475017772,0.30557885770765264,-0.14122371683791768,-0.23076779407920137,-1.2613132629117136,-0.26068984358022124,-0.45876396919155876,0.09736296411833413,-0.17995077844652044,-0.26186400590683656,-0.22832172921643137,-0.21144328292236317,0.31929165033548634,-0.21547889668951659,0.15696084506940763,-0.18560440677512485,-0.19788866072819286,0.3238024415634657,-0.24481277251243164,-0.16623614964440997,0.5581374861364574,-0.3879850030003858,-0.37629550118647925,-0.17700292467548454,1.0681908078355622,-0.17107274929977054,0.2831149290969829,-0.0616620870874669,0.11555358781483453,-1.2244482970863815,0.2003748587336649,0.19311402982156017,0.3380353346060644,0.7166950034285902,-5.777642872495398,-0.12982161630479896,-0.050092714160833815,0.1172303833653637,-0.9880881162214996,-0.18217651637545354,-0.24632996655911651,0.20214839978981153,0.16901378552434287,-0.7928581639267617,-0.17517563602122213,-0.2794105928465875,0.33187484052652944,0.6473337662827472,-0.17910728984537014,-0.25332704871916717,-0.2268129848606711,-0.13039736410385142,0.6034897830347784,2.0371087438638327,0.6874468291185238,-0.2559997512240248,-0.11562926350982229,-0.21852223357702127,0.4612134110436882,0.6709962504940479,-0.10061904712602947,-0.0002112556145865636,-0.2458483996527393,-0.21306991014391696,-0.23929189112452856,-0.09469810680701082,0.6259796814641116,0.01252953186878499,-0.01606228065632663,0.043752803313253395,-0.0027144643429158543,0.07230948001032055,0.6181424830832313,0.5929677797874979,-0.20004057002532108,0.02687590615842897,0.6518755441824167,-0.00039889153719899304,0.05971860501167839,-0.029904054518004517,0.6917534722295563,-0.19911149974681955,0.6963683981196563,0.6116472069204342,-0.13155511106772283,0.04436975680203048,0.6777820943321913,-0.34114524128180834,0.23220090883970096,0.10211676053913196,0.29055280279570983,-0.01830059990064154,-0.22038526775836437,0.6869426991634247,-0.2832134039474716,-0.16257608070020843,0.11701394445883433,-0.21485835507356746,-0.2651054674465377,-0.25293637078774023,-0.2370967865541947,0.49351569521749394,-0.08412588250861253,-0.252049569719691,-0.20748356426991216,0.1285577779093575,-0.46671428796451064,-0.25072497995167536,-0.2573437568427887,-0.24849006014593292,-0.19149018461725525,-1.218181406676421,0.100435099061065,0.10703444895295883,0.029082631059089398,-0.20267258126099824,0.1261416848966452,0.34389221334894315,1.901595114216004,0.3065376611374669,-0.23320499165011405,0.009665618248943353,-0.1750978001065656,-0.2386798941280091,0.047997442616539016,0.24500893055782438,-0.07313951371337671,-0.2150062058764729,-0.21644651540623355,-0.184097605621986,-0.24244959427257132,-0.050028994969379556,-0.21215837168802285,-0.3164486200344538,0.4820952203825469,0.07141809420108912,0.1299480828709986,0.14120453096593877,0.6897924477701121,2.0145160167164464,0.530063621725103,0.05417849264939153,0.11452028408864946,0.14491034095598648,0.0928835134689657,-0.08674180170374314,0.0282821185149114,0.329592787553546,0.1282456589821073,0.6592207669623682,0.01593555304054502,-0.09815061724523094,0.2321550302527161,-0.1368326699269613,-0.1764193989363109,-0.7605829679967973,-5.41915258037367,-0.2812263326780702,-0.19904820490243277,-1.2189930030748106,-0.13083574736535208,-0.11844893445084927,-0.25017034661108006,-0.20446234277584446,0.6875651984924874,0.3310698465504076,-0.215769832752455,0.023663368919716498,-0.2626749894230872,-0.7390857015398519,-2.1332980233405214,-0.4326294714617802,0.30553376956707007,-0.16316870197161568,-0.2051562807414116,-0.23561734502678625,-2.410073065316891,0.12451965722790684,2.0207383275117037,0.17271466850464473,-0.25374528189467593,-0.24833636214735078,-0.2544730087357952,-0.49317322511097855,-0.760582272801551,1.7162573943883457,10.857824798626083,0.030154791251967007,0.021613588064570543,-0.024702531367607992,-0.25444101706308525,-0.13821493679052213,0.01302075802020048,0.7268635861999744,1.9450763674430915,-0.12167298739009,-0.15793025636318805,0.07080061784153945,-1.229194320531762,-0.10274049515485469,-0.10135247704338747,-2.113720503425449,-0.23314675223089293,-0.12811668728297007,-0.15451103443230454,-0.48116911048769956,-1.2238772436224592,0.11755705894950909,-2.109864189302686,0.17940965272517706,-1.0874384758532964,-2.1027482531990196,-0.004456903743309084,0.025926913195285086,-1.2351344314020503,-0.4793204286671662,-0.2235196889940214,-0.2019367564200956,-0.20953408514083832,-2.4073430446918067,-0.0843131962581716,0.01934366565469665,-0.23634082570257725,0.48413328581238024,-0.17804626847242463,-0.816611893285846,0.03165431448681002,-0.07919311125773126,-0.10929897154655287,-1.2309633160189546,0.7134974818602215,-0.36510670956246066,-0.36819982420420033,-0.2945521276933413,-0.42373048500646365,-0.4683544848202296,-1.2151697227043716,-0.12597150064976068,-0.22689558765708367,-0.13170111196025594,-0.19901440058164258,-0.10580275204243265,-0.48519445559346325,0.9967233988080659,0.5265419744942654,-0.1478259708430454,-0.20720661667162413,-0.19266153650199774,-0.12697662254077846,-0.18421462698399768,0.025992775040619875,0.007230039156659044,0.3286341138980668,-1.2497039409730695,-0.2562821253493223,-0.012933886716348816,2.0388905979162466,0.30718597524768965,-0.24768863103202135,-0.2146809854216211,1.9760670665117854,-0.23444021831418763,1.725728799573397,-0.7981026669850992,-0.04999445890941936,-1.226436898742416,0.10180682714438007,-1.2172049469408766,0.2128256942199354,0.3137406293436581,-1.1762037881510423,-0.4551039507122822,0.22088067135659178,0.06660199676024496,0.11849072826245911,-0.17641630581933634,0.019889028078682643,-1.1923667490337941,-0.47906779244877346,-0.11859062989245514,-0.17787199605316698,-0.2240236268925639,0.30808730804443385,0.29571249900912056,-0.28104439924719204,-0.13866000908629464,-0.19954442148270463,-0.1694014793263908,0.23639996208092598,-0.021915029723133878,-0.1409677509866888,-0.24334251331731124,-0.21338359052360903,-0.1907363731442099,0.15496556143851706,0.43650166984911004,-0.1958206329463952,-0.23189832372185284,-0.24945854945735338,-0.01494842682594058,-0.17004157976903805,0.056900526016816076,-0.45241559054323377,-0.08108258939517234,-0.21281145279262642,-0.21723635792050872,0.7499270891413248,0.1285538799110334,-0.272909694235917,-0.21008138446862842,-0.13629687706080443,0.19144915599328438,0.0960145767980707,-0.216423363916882,-0.21089864810391593,0.03480377530712837,0.11355442906770628,-0.2396930868549363,-0.16079558690939078,0.17333784942662797,-0.14124453173417173,0.19768433358836535,0.03301416890247416,0.25255474679898426,0.2725926238601912,0.0501237690531917,-0.4317529729515831,-0.18186162348435647,-0.16136990900500645,0.11912327295087478,-0.23273347068255007,-0.16431079106129307,-0.4793154150527746,-0.021714852679787372,-0.20365543382114817,-0.12368552622510096,0.2633857873446984,-0.42607435609758887,-0.015886965189768006,-0.25723410570194627,-0.2117023879070294,-0.4897356761166783,-0.4506943986197075,0.044697302209495214,-0.13935962820373224,-0.24677745010795643,-0.27454876489970237,-2.1258194149701892,-1.2080778848230243,1.4691923409170728,0.6774416216764609,-0.12789641422654557,-0.23007257581626966,0.12465948229951916,0.6003176685182023,-0.205088925128838,-0.1722688511561742,-0.11882952527299043,-0.11089592118033324,-0.24105382535740905,-0.745023943110083,0.060302705441688184,-0.15974610100627132,-0.13395662028058034,-0.08691341080937505,-0.25155910074140153,-0.21121952548751602,-0.13894410477351732,-0.19397488164978718,-0.20495962577636243,-0.2724017578200146,-0.2810924685722632,0.3415922496209609,0.00746254359429586,-0.22041264114690523,0.26640562472953294,0.32681679081588594,-0.16254098521665633,-0.4405059692330576,0.3156632603153688,0.12404697981976602,-0.4719035491165995,-0.22478631414043063,0.08744435747421533,0.06657960908358336,-2.177216284717454,-0.22888088149675404,0.22196678770390593,0.12806696946144433,-0.1373944708329953,-0.3169111557070066,-1.2174106152669215,-0.6607601597358945,-0.261571314940835,-0.26604043963581747,0.16582482178889493,0.2888739584530212,-0.04098698170866875,-0.008527186198470734,-0.20126329768038795,-0.060069452729714784,0.11364469916143778,-0.18524972279232982,-0.26248611383221465,-0.22433238694440644,-0.14087650409132924,0.1009713877778661,0.6571101242060311,0.18660658316563397,-0.2616596969512578,-0.20800770040716135,-0.7466825999407358,-0.43198548780971524,-2.128163391692997,0.23146890428861422,0.017730058433041825,-0.018576438668962556,-0.18713880693465487,-0.2513710784826434,-0.44652750185637663,0.20073533732345325,0.03863334421570449,-0.19563611683194906,0.020026581900978568,-0.12885050541095283,-0.2181882865009487,0.008465410810506864,-0.006991090820196306,-0.01080873133559532,0.3011984480195595,0.04269570047688487,0.030150749576856355,-0.016242159101222505,0.7083121621532884,0.23503740199933815,-0.07904312456362089,0.6561418811005069,1.9317926681332744,-0.2496310549308736,-0.14586376339898727,-0.4196197012077501,-0.10972249736176558,-1.2056915944569317,0.06388618071673428,-2.1171738561750826,0.11634622486983377,-0.08299108244557475,-2.1572358226045356,0.065892239968197,-0.10508301830989239,-1.1886344985127892,0.20543727263251935,-0.24026374158443542,-0.21695432323661268,-1.2087097651401404,-0.4782530580898019,-0.015422800163295586,-0.9063623118767925,-0.3034507331065827,0.06894149267914797,-0.3211789467538174,-0.27960954758156525,0.007328499438109101,-0.0031379148553383864,0.14969931528618985,-2.170574033769927,-0.8032490149078526,-0.2211473931177567,-0.8208674202529158,-0.20897160449770563,0.11701869922611617,-1.2015106063975627,-1.2101373646144162,0.11242869909128624,-0.16764826956448564,-0.1595773795854668,-0.21934187248852147,-0.1466462484692314,1.9806893237725909,-1.2097723147800876,-0.02076258799337508,0.7430745657639135,0.047926607445901215,-0.17596139226219146,-0.2339990678727553,0.005073421875186706,-0.013222222980484514,-0.036126290763051266,0.5299776297639829,1.3059454935058108,-0.18402698111674878,0.0028263183084732777,0.650211538135876,-1.234208964453415,-0.7269672913391045,-0.09087051339452906,0.24428207518391493,-0.274280070753823,-0.0970137553971324,0.4611549019062314,0.13863103261190166,-1.2318770038407232,0.08663987315936464,-2.154368086322434,-0.48850832941795824,0.06110060833731413,-2.1265676938128335,-0.08005066996021683,0.10206518742109619,0.2944446225233377,0.06215121229778122,-0.01572184926818104,-0.00587440689164625,-0.7578835031622908,0.6611528574764249,-0.19495234601703135,-0.022602104933145673,-0.01614690559162729,0.17033052478237004,0.5030171551211324,-0.23687454503727973,-3.992485353396153,-0.22659142871739021,-0.16091277895412576,-1.205386440575839,-0.01730838507230786,-0.13503943760862117,-0.2360919940966954,-0.2473026171028049,-0.08491343623140588,-0.4571306283172349,0.14485283446455374,0.020140080764640016,0.032778163801608404,-0.13114041537731164,-0.24446315230196086,0.005606633982823132,0.10624814668788957,-0.20643524177688588,-0.135788496062478,4.228425613340321,-0.05387378189759926,-0.27340569402398596,-0.49159270125885374,-0.15681223870468108,31.60611347982472,4.193867401850409,0.4679942146844614,-0.737403053186041,1.301572520154866,4.226638486759858,0.02646070734005374,-0.163788998096866,-0.15648584099390705,-0.19699195666534805,0.278996939019463,-0.21577157115231024,0.49663441110679735,-0.06870459585238266,-0.48762002748501615,-1.2076646670495765,0.059567385275254,-0.7484595693501431,-0.46440645054257124,0.036038700619418634,-0.7752729003800484,-0.05903486672409233,-0.2624833049353473,-1.2359239134551505,-0.8170654410299542,-0.8156571735677982,-0.22054070992318697,0.13874078769780465,-0.8069007843021373,-0.16461306999440453,-0.1968078694267863,-0.30824345541165615,0.10499619481878389,0.7557873986186876,-0.17234345143731408,-2.137211255301938,-0.0985042686322592,-0.14416103478555486,-2.1445141084486865,0.47562289049910483,2.040973186544578,-0.018694976881949096,-0.1168365363289515,-0.16800331952567862,0.11765853487238621,0.13374852639840654,0.2846602334104838,-0.43364413276601294,-0.40501913386445637,-0.21492745249950465,-0.23229477787662361,-0.15866087417567734,0.28613357864198974,0.02007728588629678,-0.21268307335519554,-0.22919090745323645,-0.21123253151958057,0.21143552693332154,0.23798354655443654,-0.2488164103919142,-0.2564689216432505,-0.1671171179126244,0.31090789950293307,10.882468533335196,-0.02018082864714806,0.301796904093592,0.2831599554933959,0.6498848103751769,0.2905566500304547,0.47189986726077543,0.15097496387509607,0.6813849040032947,0.22179818016643874,-0.22038079933667046,0.08764207642885649,0.23655873610792436,0.6577185278456419,0.7415272614964912,1.941606577716128,5.357727873436608,0.5537575128958188,31.920667762521433,0.1792558590125405,0.04691368821643995,-0.1866646695871363,0.4760123850944353,-1.240450150864788,0.07903560933258126,-0.5668767994132825,-0.19634660223619704,-0.2310280413988557,0.13247998160733943,0.11204224698284286,-0.270281703864384,-0.5897517553891654,-0.7853603826662064,-0.25313669975458564,-2.163470129415951,-2.4646808762176136,-0.2859909469412323,-1.1911474304426353,-0.29007362721592206,-0.08761622859402296,0.345479306492693,-1.232301997013665,0.8218273018459874,0.5134305846955315,10.823172690111917,3.6092127603486808,-0.15766821162644148,0.6678531539437085,-1.2119983398800362,-0.4807999206002786,-0.2091709161060656,0.5127049767099925,0.04861576202454956,0.5846819808117794,-0.21405548189040838,-0.24531240417558917,-0.2132472764927504,0.6505054496689152,10.099825737519756,-0.2317450035914495,-0.29888423034342704,-0.5030605799600034,0.7938834008876877,-0.2709315299873266,-0.23444320645731623,-0.15937522262116885,-0.19373904817064655,-0.07679757910941423,0.10733445149675139,0.28209387840149164,0.23170384139891081,0.19851249697402354,-17.248499365443397,0.6750182669787268,-0.07658694193509581,-0.19996523323686233,-0.2484817556504574,-0.7957908326014673,-0.43062991513305354,0.2645427223712515,-0.23946735064111827,-82.93271315350165,0.12673224880459275,-0.44167343912660373,-0.0338549018744723,-0.5343772803108243,-12.591947475832992,0.21441368475392356,0.07875737194727929,-0.23231612499430662,-0.17868241961435652,-0.24115176093480173,-0.005452958685208149,-0.5425277076790846,0.6539178784506487,1.5057417158569324,0.039828518154212456,-0.28539279429030306,-0.05242231522190673,0.08472052738491366,-0.2620752637508786,-0.45936619792682054,-0.1668411573832377,-0.2529243533918012,-0.25307541125981015,-0.2125160764424734,0.6434551185321815,0.4867591769960507,0.07060983031674327,-0.15063752149675338,-0.21810340498183847,-0.2447868595547634,0.48100508771627887,0.005781915993885171,-0.13204951545278037,-0.21215330430361498,-0.6199616621459394,-0.4914935824092496,2.206020069559445,0.002908609007823476,0.5967968893480696,0.6497474274480046,0.021420083434872398,0.5233709367220777,5.053612543602521,-0.1138268187797698,0.0029182166777462115,2.069339744962509,0.6850572565284316,0.2121920606486517,0.10205185969148371,0.539184383146414,0.23724817889681987,1.5980252601778708,0.2557916954351082,0.2193804307806209,0.33289801470687724,0.3180545127441405,-0.12136276034856089,0.005683889608101928,0.024349909376913125,0.18290259144300955,0.12294810553692508,-0.10016936362965685,0.4933524811841383,-0.17539792299773485,0.055149747925956914,-0.20376823467818614,-0.350097971285846,-0.21307539905943546,-0.2825842433491873,-0.21861658021115077,-2.1486927588564795,0.12158048106020389,0.012674438060645351,-0.24386917389629748,-0.2583122787910589,-0.15237348227963587,0.07540545700529873,0.5001468248389295,-0.6959016629152528,-0.24344734284667563,20.291955169935378,-0.17744512853389116,0.15210540386085855,-0.047522080679739905,0.07520114901751314,-0.2006900673551534,-0.2752754082709919,-0.006266436404956861,-0.11773524159922144,0.6511426333760346,-0.27046176660192994,-0.22445441920817702,-0.24618527245570018,-0.24020420398418058,0.669113422901042,-0.2577670542303131,-0.21684935112457443,-0.22503411885122535,0.12160615287213222,-0.1881536699386002,-0.14671032235722634,-0.09740926746958896,0.02387390649282379,0.24213239776966294,0.1971818275968559,-0.2250741565616366,0.10931855922442418,1.0624132872037813,-3.631239501363197,0.8441279673377562,0.3923600457156446,-591.5110982893525,2.3572496359962094,0.3827347473949687,-591.5375404481498,0.30869159601240775,0.45095247025838253,0.24603040645330665,8.680963995234707,8.699166624001604,0.5665331019869002,0.47281085551372043,0.35884240850533167,0.2732602462685595,3.3471370642453646,4.576941796778107,0.06058670904336795,0.38651119876304746,0.416625329125435,-2.223179951689357,-0.7336107157926378,4.573388522841174,0.9909580441492777,5.913589073070576,1.1358977647585002,-0.0967671370383339,-591.513110074554,-0.08971839833119417,-1.5546436038839995,0.31685020068428155,-0.11641330523952602,0.36662916295042464,-4.910847087973724,-0.9429587462158757,0.8339051688398876,0.010871218206162454,-0.2259197675714469,-0.08553762820992203,0.5028292766312097,0.23453063573974167,10.211402463575713,-0.1278021135412951,-0.41911852586552417,-0.09998533959265184,0.42479026852299784,0.1425217959773178,0.3721489404174425,0.032737555617465,12.39490215298862,-0.3891774769908368,-0.21281082065813237,1.5964063664512236,5.638868267568233,-0.16088558072561637,-0.018355180938664273,-3.165259520844507,0.9112617080287736,-10.321973906901862,0.5073116869126321,-0.9851611774157817,-3.598312260106836,0.4472636909271719,-3.453944486856447,-0.3097978538987693,2.901228796395272,28.556340063469438,1.5327711196420877,7.563497694625126,2.343598595632344,-2.4666112318259725,-0.06738365952243447,28.60708903592376,-0.1867472095994122,0.8947770818671232,0.43206017151189285,-4.280901831246714,-2.508659466729378,16.225749159097123,-5.041330230011668,-4.958613082714776,0.4946064669945686,1.1514924392064578,0.43049650193937256,5.905132424842205,-0.888386681964496,-1.5867914354211177,-0.7393500157325822,1.5839908926018968,-1.7784880972955208,-0.03130887857031564,0.42091049958299237,4.4504170112993675,0.868194787625021,-65.61895275956716,-65.68110862618887,1.5510918082454443,0.2861909976711759,0.1556566740407486,0.4012509261140428,0.38369230184398123,-22.45937836974212,0.4433518062667032,0.39983289419176304,0.4362190725232979,0.4438401673235095,-3.432397469784384,-0.82659935691521,1.1231810360811185,0.40918781446154984,0.6032738487139322,5.875473274514841,0.4588644902733731,11.765288536127015,0.46892077582703723,0.27192868813726145,0.045339354665865444,-375.54055162207635,-0.32347758157343304,-0.42932320851415534,-0.48265905081146143,0.6462507682239716,0.014672309373935221,27.930206457857416,11.696681395634199,-0.2604023458864843,0.4002661411656067,8.671848030574866,1.5643792437638255,-0.08744458909975218,-4.328538355061151,-0.09953657454667782,12.033039105005804,0.40277147079501113,5.895233018191196,-0.3187922699018271,-1.2489687714094013,0.450630352246491,29.39499844727882,0.27747803889720846,1.448895847481939,1.9765626968318097,5.902638770305699,0.6891822738702219,34.33960120700939,7.501257228770945,-1.4079037182260419,0.3867276296304633,0.3875607462782635,1.0857560237407973,5.869588015787109,1.7192099033675972,-0.23700805683651077,-0.33173901628364716,10.170459922321111,0.6769383621529332,0.4424788888972152,0.3771636887035954,1.0577523064792789,-22.461270673490517,0.4004311715703666,0.5385104858634814,-91.36230232784628,1.121691599516171,0.39685825927717944,-10.672126828722865,-1.2631937031428315,0.9238755881840601,0.6093994991338909,-4.206119892677782,0.4399777434329212,0.829815335808827,0.5547532043923131,0.6830796565881464,-0.27350207168900526,0.9614050809128293,6.185347129646224,-1.7602008487450718,-1.465902719927936,8.647917049015101,0.8140964037315717,0.36804736680274647,-1.417148777791831,2.2415742435581145,4.563556329459989,0.672487984566948,-3.634240968869297,4.515268718533891,16.256398614310417,0.22899720705440985,0.7317678658339588,-1.9735662965412186,0.40381575187344876,2.311682289704247,5.932664188851082,0.4052453342775868,2.3077311455791403,-12.991187425790972,-0.008729632786966257,-15.062877973969167,0.30386345961585826,-1.2612264540311382,2.315963047439176,-0.8569976755416494,-3.5408151068935934,0.454199952990158,0.5634700480289863,0.7954720339417679,1.3624470356151017,4.55665789743129,0.6840592509265612,-0.9096632707931117,0.5788941608301245,0.5065890482044066,-0.14480377506567138,0.36496227401246395,0.3223661623697983,0.15780725333179466,-1.170751049939754,-0.11471416366537698,0.3649433308693174,0.30991844488310566,-3.617667240564902,-0.06816173869982028,0.021682393595969112,-6.18044976999152,-0.4311961652473782,-0.029857489517700096,-0.0016191157275804629,2.282763781158501,0.2090045222133581,0.11586851449381942,0.5639199540880431,-3.1679898204524,0.43334937772108506,-3.1677574734507377,0.3880291292292597,1.07254637617712,-95.50743079093881,16.26063562362765,0.4180013301749151,0.053012253415791355,5.893602889718169,2.327513170120218,0.560401036379476,-5.74457888240618,-2.4163843298309167,4.561999905885142,0.47867573855486195,0.3884463611343082,4.816734699934227,0.39893185898341016,1.6639096429964937,0.4358990132104495,0.5712543883114458,0.4152831256082973,0.2401957947423324,-0.8713098094922442,1.3575874125413319,-31.759508487822036,0.4496640335426443,0.4237821945962519,0.8910836480199336,-2.0882225601375537,0.727359678605434,0.5699196464767156,0.43916135406540235,0.39675354824187553,0.45002614336500596,0.40617285978175605,-0.2481413073500195,4.544481303868492,0.938825232516789,0.5362651735907331,0.40209514157276494,0.674161781202156,1.6616491065114165,5.890346033075493,5.916481052360524,1.0654859655823772,0.4490995593641344,2.325552408328069,0.4977167278727002,0.8110230583472235,-2.574905967083049,0.37769906137089876,0.7769477175199621,-1.0124208443953098,0.39948362548802724,2.017628154018477,-0.6863109029472929,0.3849822202252994,-1.876221351639256,0.9720005967710769,-591.5781572435075,0.35985901396834086,0.3737681184809662,-7.246598612645667,2.815149976484137,0.6331495884597794,9.065193336931316,9.623062074493294,1.3557993897781413,0.3268443370138249,-3.8996777871644746,-0.7660267737460315,4.540621961359103,1.0935104759984653,0.4132208774173914,0.2980714868675912,0.3467431732238402,1.5677054831632813,0.09611727205936273,4.5400115174114415,1.5899188605276664,-0.4482605116149578,12.88142421630714,0.053512101225802314,-0.10956241907817359,0.4247682603768489,2.3086648347071654,10.435238983222282,-3.575022376740489,-3.9871595581745978,-10.719548935641482,-0.2759794701755401,0.8137021504999641,1.057642191886927,-0.1331777073769422,2.2836299905695996,1.912931360534726,-0.867427602885331,-3.445119680912883,-0.9699574674163964,0.03954743969525494,2.3521439493472833,3.0489524940537773,0.8573850683261859,-10.73381805674901,-94.234055507373,0.2482325678352629,0.5318466696012579,12.851990188917869,-1.4356608827149182,0.09654709907750604,4.5498096519052345,-0.6826368499619297,2.2861692848474284,1.027784124359628,-1.9539818420025574,0.29695005540072256,-3.229290276207162,1.0386743727723835,-4.333501523254153,0.40790215401916446,1.6518282349736837,-13.36474142640782,0.4990017287330452,0.14536004801781569,-2.8525399020435134,2.745965884419654,2.8031524079785224,0.3786248280368429,-3.465031626140793,3.4814093690539067,0.7975874183185828,-0.15449292436856837,0.4442732916729017,0.3537740680788308,1.1116898003123852,5.893366237000046,2.025121241134061,0.5470734699504759,0.43633556479861235,-5.064639275487451,-0.2764944153521522,1.5958921492592997,1.136033592924292,5.911338419965612,1.0709182131439743,1.6601314583412436,-7.622284049109867,-1.9898435170020945,2.29703179094463,-2.6073177514882584,-1.4262049043277174,0.6180080325975122,-1.8186615243779267,-2.093542775891317,0.9311058412541597,1.358196893098187,0.41387306106663474,0.4979143232328018,0.3912394584098432,0.3878594466749538,0.018603352721410296,0.3630135564496609,1.3304660972903442,-3.1929560426947847,-1.7694570586393428,-0.9635261688498797,-0.2369511111408638,-1.215332853211367,0.41059356716587664,0.41032725802616915,-269.3031657158774,5.87901244284786,-1.2061880111897285,1.5201022079371245,-0.48174157770557363,-3.185203410161926,1.144415113733069,8.666927693760888,-0.2102327280425909,0.39121985753503385,-4.298894494757158,2.326390424080381,1.0747225071561626,2.8291598545168064,3.334201808925229,0.4355389250245989,-0.29257887734456445,-3.5238490225634402,1.064437156063777,1.024753036695651,0.2954572840478875,0.42186794838983116,1.0586974929776054,0.27090050716437925,5.88607508101029,0.9395461197550299,0.6652064606790988,0.49643464489808337,-591.5549857062468,0.29720429297300793,0.23869589318730836,0.8349493036003564,5.859307544098318,0.3781031992537609,1.4071079424910613,-1.7619423099683393,5.921360995322069,4.519828129129596,5.885694415129146,0.49497473553420207,0.6248878114666477,1.7939038692047844,-11.002281197849763,2.3582095546747808,0.5981146247968312,0.18121890961008966,-0.04824576605117395,0.6242268005717095,0.7128323066439426,0.8703950872429823,0.5217062799364509,0.5192553643230445,-45.767874995971276,0.4226889215998738,0.45381033821087136,-4.939318871380592,-0.2209674567000828,0.4004029238962227,0.35757781132308236,-6.044691705517495,0.2201596538375376,0.3641441412747697,0.34522561910967514,-14.480424752914539,-3.1777136837779545,1.6446953449975064,5.191677151556617,0.3967189639481648,0.6699814048041239,-1.0983819593000086,5.867677112036154,0.13767531086831072,3.2888791000088182,0.3472963156800045,0.4258519799000453,0.14961663094972888,-133.12173305828662,-0.25620031581735947,-10.721522342296312,0.12604337669897644,4.1245494927468025,-1.9565834075140036,-1.8856952931695494,-0.18254174266678616,-0.10451825261514172,0.3906823475061006,0.79696025358372,-0.46594229191792885,-2.922826503757175,-375.4992800977066,-31.79713377277889,-2.7240465389341133,0.43360540071589676,1.6845457883061183,0.2173683605315447,2.3462477046495507,0.3982446822456554,-10.664224296726696,-0.3986287685597163,1.5149767740360944,1.1351251706061218,-0.4971526176878946,-0.13277501737177316,1.1395889124349377,0.14298897056729473,10.161643370315149,1.1630153381160804,0.5718834536001541,1.2927849628040615,0.06576906883948953,23.315320718769083,5.9136662210961175,0.3712378684941215,0.4420554922401557,0.4559275458445425,0.6659496134431362,-91.34256478714137,4.5034834769220495,11.711963972273326,0.433371475733871,0.8159488440406342,2.826894774415509,4.587514643002168,2.77874175208136,0.9495022455867309,-2.910467677381142,5.912830729345124,0.8756151144989232,-4.067513902306956,1.0782029152672747,5.9090298901290055,-0.3016489831887858,2.8621850821441583,5.864629799343521,2.811194637733791,-5.0797732830122895,-1.9524858012467412,2.3496084611698658,-0.015463019053105672,2.7818475368969597,0.4188406980070642,0.7322050379666836,0.3836306475010638,0.4323852692516754,0.389365271762522,2.2968985457852926,-6.055712059728031,0.8120313393826041,0.35686991973108323,0.4163459912892651,0.4188164725741205,0.25860684794172767,-1.5851348949361643,-1.3630073251357082,-0.5091118843110385,0.3255377134222724,0.27661206330253074,5.934642018687131,5.930091526936239,0.6810226865538676,0.7581214069609614,0.5809082879055966,0.6121093963571982,0.3014244864944136,5.9032551469983385,2.3543878226922423,0.5029332518611862,1.8660866548403368,0.37135007312156404,0.3808887691052526,2.8388283654604494,-2.0402550864181483,-0.021049149935297096,0.3511706577138842,-2.474944685711056,0.2340825660763916,-0.38836997028792997,-131.1636932068516,0.4151216020245595,1.015196713019974,-0.4242341765381515,1.2454822807140051,-3.2153667733321742,1.050798350045723,-4.440952115615548,0.4049955360829223,5.905394363216099,-5.953306184458654,0.5093220282601837,0.35772994461311103,-3.18687306896246,-3.220583091665038,0.0005351316471862433,0.6037751331088681,-3.890466109170812,1.7150619892547105,0.5108452779007903,-0.6932140268100527,1.1174258302226574,0.4273126831766493,1.6336920177880034,5.862769215959432,0.3280714707020915,0.24268340456389953,-1.4314640799970584,-4.353982481892887,5.930407343840876,0.40393486040005094,0.5540985987034754,5.910429329758633,0.9620016471220749,-1.831898955149387,-0.4449643898339571,5.856535969645166,0.3804304981311692,-0.10403439341743843,0.3886554840811395,0.4868365483221528,-591.5156983008407,0.25726859334142216,0.9814169097750144,2.3888493645405604,-0.10418653942896068,2.283141811648219,2.354190657960686,0.5241222788860466,0.7207731858797626,0.9289502358745252,0.635828238352912,-0.9349723857453264,0.29526204544758483,0.32595402513974153,0.06225031356030969,-0.24317227438328298,0.4790635470593866,4.581520512155818,-591.5660376310534,1.0526225618027538,1.078782737820791,-1.9517992702268019,-1.1350115432717212,-3.362460929503672,0.6773185984941662,-0.4591041089447046,1.7248313698590927,1.3225873616391215,-0.4778363692754189,0.25724152567283026,0.34098028517554596,-2.285234181058855,0.4612774686321011,0.09477138229387319,-0.0910922507633103,2.2168446661252355,0.34604402411410556,0.18839468664637904,-7.827336247760084,0.21275987614747738,0.46321382977261855,-0.24912617952798732,0.7699549734338206,-0.00618473528668953,0.36672820331902795,0.38966447092932005,-3.4146456636233546,0.002597409667597454,-4.953525733933109,0.3408330413213446,3.7786347116377397,0.37696296810430074,3.3375565413604895,8.675465197761008,5.870580750648367,0.12737876263715367,0.39179379443750206,0.4277969900844533,1.6060723108355774,-0.8877872446047375,0.652167703115793,0.32444889755258266,2.419749493346767,0.4184044478313709,1.5907581168292926,2.7414404618392765,-0.11357287946996328,-0.9627300245879509,-0.8280083491221348,0.6054606578170525,3.305298316958243,-7.979806503110102,6.941375527360118,0.40193851357402227,15.975319518603088,-0.42635554792342983,0.3487705463239602,0.40431989068348,0.4725471280121519,0.35917387447741317,0.3742087068993417,0.8799570090488137,-0.2861768160328369,1.6465810218167245,8.664926988477346,15.621128037534975,6.4462144376753825,-0.9881882685566863,5.910386849908564,0.3904406354313624,8.691245899616918,16.257240277517386,28.623454307780786,0.39956643460892904,-2.2599435175262657,11.753867209589702,4.574356286163795,2.348431746293362,28.618996700562587,-2.9171186360539227,-591.5193657708983,4.590910613821881,66.44715188851767,1.0571835779843448,1.0706303890825983,-5.070611923713794,-133.14832432072794,-757.3453853005446,1.0280804070926437,0.6013454755207949,0.3942332138055446,0.7503478152302362,-2.723449924055624,0.18735425123982052,2.3297048326495484,1.1545149360835427,0.4524149497074893,2.310204227842295,2.362091816642081,-1.9484947273670201,-10.701054019052306,-3.669230269997087,5.907531826390037,5.895236314812016,0.871405090205518,0.421330882924049,0.839610214593728,0.3249638824306412,1.8787434955572782,0.22600874930646414,-268.52964253930617,0.4044343775125321,0.37051534658164187,-0.7127627521872095,-189.3406306360412,0.623336655609385,-0.9611488981443541,0.09469907100307963,0.022818748403857423,-0.9705525235734438,0.13177694980791202,-0.4046808622416311,0.9560414229470905,-591.5673870122856,0.5151855648183377,0.5796106302311342,-879.0698398082698,0.4361869457152824,-0.49873500979744906,-1.2023966250619724,0.14473893587889394,0.6299254011315197,-11.260144305993899,0.10041501212788811,-0.8825740937082017,0.29273669308643324,0.3746899627569087,0.38323179263146745,0.9090724642786826,0.013639542401562631,1.091569025461048,2.19928920021642,-0.7050081154994895,5.878919967197212,-0.4689673616396151,3.4348314835767484,4.545676146504914,0.7596143481341596,1.102707434668653,0.44098936145717865,0.9546813734846431,0.260933282831013,-0.8253280619507634,-0.24071100931426156,-0.6325261830183921,-3.2236809309269963,0.4390203367995261,-32.86025792387093,8.663484582364175,3.9269996782531504,0.3842334479700088,-0.23998752293852507,-0.06579479205765212,0.35948262103777207,4.558888143291805,0.31382298419534477,0.5117388457263181,-3.1507211672445776,-71.99848838872744,0.9097685476294463,4.568450301033669,4.567567558520198,-1.9483688948247495,0.5452800234342341,1.61091658726148,-0.947674106643303,0.6205543195148477,5.871736620618544,1.333259552016636,0.9112564162367809,-3.3935353162524136,0.9486363150827001,0.26142778609335215,0.29172476218136606,5.860052568554268,-2.800252087812103,2.355652432417724,2.41991949382319,-0.6393430084849188,-0.07918113161169384,0.5717122725388103,4.319406736915704,-2.767302910910633,1.3164767096140564,0.4094856734833143,2.595506461476216,1.7094234711850191,-0.9295871570913595,1.0730007829249688,0.3865949263232443,0.4283355024923673,0.35051402595437736,0.4291036335677258,2.7827197287882304,-0.5279031846740981,-31.79662258700188,-11.279142904757352,0.6164902936716967,0.6459912078310085,1.2847023389684227,0.2587570741509976,-0.8800166643602275,0.4519086272892913,1.153589455264331,0.455700178921437,0.83739635934399,0.25784944291338496,-2.325300036327877,0.34666674101839184,0.1256569516987546,5.923670567755887,5.911620287201096,0.39272107623002994,0.3973284219519451,0.21253382108049318,0.1810013429883575,1.4538977810519538,2.7746377650868053,-6.674256037615025,-0.1141047575195868,0.29200966475635864,-1.9307878007454369,-2.4322648563042386,-0.11735598881692604,-63.09796825905518,0.4400058496150492,0.6175524793975797,-2.5465222212230265,-0.18930240211564334,-2.568563823879429,0.9274935803629464,10.05526091018863,-3.171023961775629,-0.9551107321203157,-148.94690500780308,-94.27765377706517,-0.945748417327123,-2.2754955122258362,11.71138498553094,0.36567570579207614,-3.4643232023101906,12.557841529293812,16.723933825299063,5.8995616654186955,0.9938544799365625,-0.002215244873777101,1.8134491283472824,5.8672747209569245,5.87500568637094,4.525836320085872,0.6345421400373105,0.6862005929661452,12.534805854171205,5.932674676557205,0.2996358390521219,1.0655502761232327,5.879553702480692,0.4197767158734132,3.285165640229648,2.251691298933214,16.77967177260186,0.6449825362980881,-31.962157326676564,-0.9103806684246575,0.35491400359082553,-0.18656868091142523,0.5135300787277173,0.6424726199050993,0.5381922109152569,0.39070965171454347,0.39745980904841577,0.4272211962985037,2.307732527631614,3.7792222601939476,0.42612915564272735,5.908309760641556,0.049595846932064855,0.34865500432058966,0.4588246284499664,1.254078557627942,0.5932993936044161,0.3304504503591078,0.64723535311225,1.6387340754943946,0.36843917329510883,0.8630619185019934,-0.04959891613721856,-3.4416558884168595,-0.9209778607038782,-0.07595703759627287,-0.0009228240872657242,-0.17528296879272426,0.20792189837742284,0.19456011509316928,-0.085960226659988,-0.08601788610559412,1.6682377006460456,-0.042777835160181646,-0.11304106473977672,-0.012188528744712487,-0.5256569981475612,0.16732932726845773,0.445377059655808,-0.2574418373799499,-0.3092365067923011,0.20236055170048708,-0.009707021702063992,-0.23399387333240407,-0.01833638648539161,-0.23336933504640206,-0.23754177484865402,0.5918940585633498,0.28139182910606153,-0.10657301413235164,-0.3736931655767007,-0.2847652453528738,-0.11093677881556335,-0.04277993244598227,4.493387263334253,1.097422505271331,1.933800316188422,-0.022534934477285586,-0.2103302592649526,0.1474771349590915,-0.003073674088907276,2.4232260759550264,-0.28761119262909374,-0.20731482251061953,-0.13099821152405297,0.18550635806657242,-0.07996886639002207,-0.04137056737310194,-1.2349387538538255,-0.1582937839491549,0.014142425493509681,-0.19726224208741167,-0.20355225663345364,-0.06307501646434009,0.026278742949692457,0.4774280748486577,-0.6833754926554695,0.4917689313381748,0.472435568541703,-0.26196716017238475,-0.09411388585761017,-0.2321718453284548,-0.09576351238223198,0.22340951582618726,-0.08411740397140073,4.589373039505429,17.88709832476747,2.4219165238657907,0.05280637036262238,0.015295736206633916,0.16973665339678856,-0.23529878506084048,-0.23087386961297124,-1.2461754853961553,-1.2268530038352359,-0.563759782247633,-0.27484835098538996,1.8381425117197996,1.0149696053691306,-1.505894456914722,0.13442608853034674,-0.06784091555586234,-0.27226574025961037,1.7378013409698705,0.019164402210163068,-0.6641177513326177,0.1314157074962429,0.4336032970293683,-0.02851115448945911,-0.2618424124879517,-0.235872313531965,-0.530709538556808,-0.2079063038022604,0.12152917415664151,4.600586926386856,-1.1956224411090008,-13.718696733736293,-2.4582291018221354,-0.24738949485451964,-0.12261161269840062,0.04552916602397577,-0.32439540579625437,1.7884055513679042,-1.1713667203449585,0.11245905209580268,1.0616990308298706,-0.2007458496311391,-6.904838602247829,-0.6686062602298949,-0.23834390463250954,0.10208510898452042,-0.16767914873259182,-0.2569445928699259,-0.19467286618933302,1.1575878765650882,-0.2366496000219299,-0.16259116377008484,0.06592608582727892,-0.20534692137921168,0.4930107010226461,-0.2267510444155016,-0.11814465375302212,0.17341075072131829,-0.0214550471015031,0.40965547107212724,3.5139277356005514,-0.03230191780398626,0.05052067581205454,0.16545169322259293,-0.2074679427035352,-0.22826503147021773,-0.21322096245335612,-0.15066978370553277,-2.1985783002016164,-0.24813729459172787,-0.2412016760398766,1.8865274096858047,1.6893541532752159,-0.2018316656779939,9.748230979313947,-0.07905389552177387,-0.49107722120801417,22.73062862318606,0.4805871941205044,-0.06494377936967818,0.18151457377477906,-0.0016640489609492189,-0.362294208669014,-13.986602666753567,-0.5110411708092366,-0.08747119451811876,-0.7835535569744992,0.12357205884037331,0.4476582182824087,-0.11370592516770753,-2.390576637012099,-7.058602919205489,-0.28998880761365,-0.21387367353066,1.1035243041266514,-1.511681109853705,-1.2310908644701037,-0.6520449797114098,-0.2323968175235659,0.48440921881398236,-0.23098055581729396,-0.24060564515271363,-0.6790516593541066,-0.24529821942530083,0.09095985569619146,-0.24803009325022887,-0.12551489883430272,0.010174746661268485,0.49234275196404126,-1.933548661695515,-0.17206377403325282,4.551804111563829,-0.1575974640817906,0.18979100365193433,0.1794928188976168,-0.05350053876135998,0.169684716680094,-0.09113937188716281,0.11336538625981016,0.15888102000163926,2.668433169152829,-0.1849892050864515,0.5974840926398911,0.2901171361768608,0.1242357953813872,0.22432627988005574,-0.1448892540352365,-0.2748649067708969,-0.01584951253286087,-0.01282392717799922,-0.16682465134405794,-0.03901988860609256,-0.21312967642828165,-0.07686958788852884,-0.003701273137309705,-0.23026852148559143,-0.2748852537597907,-0.614473224313505,-0.06441770796083643,0.12043626949657553,3.422125574208383,0.2415875630381165,-0.25814703839640335,0.09089427758194729,-0.20743628531153588,1.1208984718664339,0.479666581157513,-0.22511309651377556,-0.016469783770275952,-0.6337617592709687,-1.2601792421396432,-0.22975673070450173,-0.08810472232499329,0.10472765216627448,0.22714945174189807,-0.032307768420786975,-0.06381326343379816,-0.029688994366985716,-0.05650587809533471,0.17510065600405358,0.552842639377895,-0.5458753554333,-0.10675280860873922,0.4542601540578428,0.053736050832543826,-0.11724026610682299,-0.12650064382489223,1.1065101797185022,-0.16530406711119183,0.2047125516655363,0.4500333369626952,-0.24313355600814673,-0.10196199917766437,0.10966682444178637,-0.26806685616098547,0.191239446575768,-0.04771730350093373,-0.11084170913539769,0.18038477899705632,-0.9388159455032112,0.12043709252924142,-0.29136838962141043,-0.16314311168290033,0.6376813552510397,-0.2669672930144014,-0.6064436580401136,-1.2496879123769158,0.282345516524209,0.2905182109103687,-0.01368048849206679,-0.15545993072042866,-0.5642127588047078,0.22759736944290718,-0.08887768505570244,-0.25626874756391255,-0.23363310552003227,-0.25980906660222947,-0.23408930776852616,0.1699755959917205,0.038757680381145035,-0.0923782052885634,0.07665435170289275,-0.33089722939819727,-0.1038080107986711,0.18275827669523795,0.6461251952151632,0.08709750534583599,-0.7253933517638654,0.042785278622931425,-0.23527950411317738,-0.25094775140618514,-0.22839602120974883,0.3011885717166388,0.27886568513888366,-0.13175916345004948,-0.5817299580069029,-0.2777505924109693,-0.182884127854952,-0.05461608052259961,-0.11097714446760752,-0.08229333370174309,0.15245713043911227,-0.22953343476063542,0.18331485013946405,0.13983246195065185,0.4289142403551314,0.6073367422415379,0.18847021781231751,-0.09952728400627876,0.13218891387381995,-0.04400333826768201,-0.10555176727168931,-0.09457415558110412,-0.10855776038832361,0.17650336915402048,-0.08497169994784033,-0.033529931946981596,-0.16266792232709537,-0.23974524512803225,0.008117839855905288,-0.1665019163062729,-0.2073790560240071,-0.24445456433125126,-0.6354897490675729,-0.2537943084166995,-0.2503861322663936,-0.1868181802820902,-0.15043828762630748,-0.05449756092529169,-0.22408256324146836,-0.2663368182549222,0.08405285958232982,-0.024444216094933427,-0.2712455681092399,0.09182890049252584,-0.21410762922284587,-0.3678411463122083,-0.3010511032504117,-0.06432612619618441,0.17645742293468653,-0.11696593500909025,-0.2291984978610138,-0.11922026164347199,-0.2764652989779077,0.14802789926254512,0.45898230991498534,0.17389544963537043,-0.4958667674424862,-0.3374225142066209,-0.4927310231701964,-0.15586735642603436,-0.24807944621930858,3.215259175116548,2.5413237918338196,-0.23261309698050722,-0.0632645295176554,0.027584705834341295,-0.23910071499470026,-0.07480796432392248,0.651911064697386,0.45288523804305836,-0.16834763126776198,-0.154673611741961,-0.19455202277820513,-0.10729503557434106,0.0353662731981715,-0.18556227055722524,-0.06465335059616806,0.07047311982720436,-0.2098323078259667,-0.2136804999998098,0.10752265404437265,-0.1822093224898176,-0.06330100991109514,-0.08881977951359583,-0.17374844083411603,-0.025670507566628795,-0.34451349221989863,-0.5698156399546344,-0.10328320985738498,-0.08792851341293849,-0.08678761153064606,-0.20341601934369902,-0.2495396096737897,-0.13907575127744,0.1335872063741237,-0.5271832576302217,-0.12220853893237209,-0.003523884227704369,-0.24044919971938555,0.4701060363347551,-0.22827130548809793,-0.33911140910219084,-0.11839190607281166,-0.16295160730377922,-0.1278199882686239,-0.10921882253579429,0.15183645458742473,-0.21660429659208152,-0.501382798415806,-0.28979636190391006,-0.13331801072852884,-0.18753781738597058,0.02331396149218667,-0.13362326377876518,-0.24425429347804473,-0.16724826165080528,-0.234374785018333,-0.032304245249785014,-0.28930077712076585,0.3046546726856519,1.4340260007603007,-0.19332918218621695,-0.18070731968438916,-0.17849735614290332,-0.17005698154807034,-0.26943791641011483,0.6796252711878848,-0.02337226345311791,0.4891048545950545,0.032143178859745894,-2.49278937084992,-0.2698592334152025,1.0525991129900742,0.09181959477930457,-0.2574472239828374,-0.24663843941495212,0.23043228217024386,-0.2603629417911608,1.478284757957461,-0.21753413939408608,-0.14667654296814467,0.06773806553305081,-0.0706729843792587,0.09624068571416727,0.17185367343982508,0.001686516284975,0.03205940426345442,-0.2453595104171797,-0.06932082016848681,0.623455061778389,-0.04809436320194492,-0.26471581995866966,-0.03136900675111355,-0.18715755668846684,-0.30758980654430973,0.27752549083415734,-0.23931924877207614,-0.2742187470536445,0.11303813799754055,0.1382254838109554,-0.26853230669309763,-0.017535134127840784,-0.23852070936102832,-0.24223209027312928,0.1996635728866108,-0.09237519626241615,0.00017117301410841463,-0.5809116168500501,-0.2766450116245927,-0.24462272821967876,0.531320217856736,0.8077318080964621,-0.0803087973831191,-0.2734083861455791,-0.20127729644595332,-0.20309850338139043,-0.22274764927796656,-0.04335936616864799,-0.2633793691933115,0.007583326898066168,-0.19006486338787443,-0.25938546695348713,0.4433561892243056,-0.031569617338132336,-0.6649528599541554,-0.20703742039340853,-0.037397912137915004,0.17429449500453548,-0.0813325279047329,-0.2432458054581047,-0.29552712028951894,-0.06305517307780628,0.41986974350111295,-0.2764547052957817,-0.17645084324721982,-0.10644856148856265,-0.20664496139499136,0.06957765285858619,-0.20762938466563155,-0.08766259716733603,0.1379883587555417,-0.11370614062023435,0.1840289374532942,-0.19486032777167958,-0.2237117701561169,-0.250638440076847,-0.31247908642971184,-0.19951128333987697,-0.17396045059404844,-0.22988600111897314,-1.2293771277642507,-0.2681494900391386,0.2192939489179859,-0.11605040295607343,-0.21417369165208017,-3.8098803839410644,-4.282436388287981,-0.24182432332778278,-0.22050510274888646,-0.1342549889814586,-2.25487587606817,-1.23105659904692,-0.2674912966859773,0.20543063317376845,0.1404273274261718,1.668954425005889,0.46395289137822115,-0.24193011565397995,-0.21416741388102445,-0.07032386462883278,1.1401928407735007,-0.21504732348004993,-1.1512127434107455,-0.3165379902338627,-0.33893811063694995,-1.0326727464215983,-0.6842029503408459,-0.07036196788603022,-0.5907874335450426,-1.7946297822520698,-0.08431800106123152,-1.2692151614002667,-0.2333221039133003,-0.0852841716860336,-0.9993156490790391,-2.321723675987352,-0.21884617443204743,-0.5312062284164393,0.10920075686991197,-0.04357565483953738,-0.1761272439585413,0.4541276526308382,0.46008874878764927,-0.02058103535485736,0.12146799652857883,0.183124483439373,-0.10833257104306937,-0.04443917136951264,-0.25485082529703357,0.10961875166713755,-0.09862184473655455,-0.19603085993204486,-0.1545270848330141,0.062049639066513645,0.10703692679167602,-0.06648524312433535,-0.14714578175374438,0.07536342719909703,-0.21569104966911154,-0.27706275474381953,-0.258546673524116,0.591200410044978,0.15912001763085803,-0.08487005604146858,-0.026904590034981815,-0.2203201852269567,0.025378976186141905,-0.11955200890731567,-0.25715653386968973,-0.243298626481428,-0.2098856757345786,-0.03051818253197639,0.11961022154261737,2.0676381316382644,0.47997603075593953,-0.21382600795659856,-0.2404626558617711,-0.38341503628799284,-0.1312291489306103,0.03197516949420718,-0.05371259983964098,-0.16365663965219376,0.20411994376320072,-0.23953443363822444,-0.15844010806530046,-0.08888138635317698,0.022581397413436805,-0.1414867872692287,-0.8167926597716764,-0.1505613729571278,-0.16522956170853223,-0.1634674094054608,-0.003239317939443524,-0.02169046490982505,-0.2375518166753308,0.11648339553688462,-0.167791776554035,-0.016619065566964557,0.1822365716476057,0.5852842733462686,0.13816221311505508,-0.1205507294869531,1.076683067693082,0.813362787507627,-0.22348420016326234,-0.09704792220175695,-0.11219023043952221,-0.12374170079605393,0.08426887830540628,-0.07299922766789113,-1.0741374912057335,-0.24480215155891102,-0.09030872302065078,-0.22463976364287233,0.03508912973696576,-0.19750905625609178,0.20112198182455723,0.170980021684051,-0.7016492652875773,-1.1647765131237062,0.12649962958145314,-0.13061227952602525,0.055881241183494614,-4.8985597108224725,-1.8814140870316591,-0.11716213720011703,-0.12321676736188139,-0.24813190277401778,-0.10266471579901924,-0.047440001409198865,-0.07269024170681232,-0.2069257621437728,-0.12208387435636635,-0.044776363804210476,-0.3305647478996017,-0.2190547032616898,0.14067718850516886,0.020007583128813105,0.09398910489036322,-0.07763542483794258,-0.19801571641821392,-0.07546651316213135,-0.5495239527997267,-0.14780939029655532,0.5869423420165901,0.0928600838788312,-0.14493953080739938,0.28276326696556014,0.517773102807728,-0.2422891718907729,-0.27697471430753445,-0.0220935196234394,-0.1010413295472765,-0.20109911478705048,0.1794526249197607,0.48622623691199374,0.014552591756269152,-0.12846015395593932,0.11260795627945135,0.2185190116659127,-0.27715628513967083,-0.06091761098582429,0.13889228454622868,-0.13118238784249575,-0.07040346683067486,1.7001932173298882,-0.0940506596052452,0.1533023939501478,-0.10564473110836348,0.07711291762064784,-0.23039923255512684,-0.08194617280843006,0.04654646483387008,-0.10729190569816567,-0.2267470174561076,0.4372432592214193,-0.09754151748089457,-0.11587760362027075,-0.07323228043854264,-0.09962761534215313,0.4783768729608209,-2.4928909467023472,-1.0701280284277566,-0.1676960827458509,0.06567991074915647,-0.039192471096232875,-4.892320752364589,-20.070919226291082,-53.82953287206278,-0.14189930435716597,-0.22667786244437155,-0.2123948367413659,-0.1484608359849113,-1.2040593673152242,-38.1300118246846,-0.196786956685196,-0.05510559131274162,0.5957062351666619,-0.21526757567801047,0.009393206506211263,-0.0927057995647337,-0.22288669491896415,-0.053948576600899495,0.2798022536165413,-0.1810963954161882,-0.21921349100033546,0.283902967805359,0.06921622910827453,-0.27232647585313585,-0.24216343016793332,-0.4443859878016747,1.268784891571352,0.8421848475630542,0.4994214112286111,-0.12520159254503557,-0.3148324391320689,-0.01068665834257345,-0.03462576456094844,-0.10282732214290069,-1.0673040471102673,-0.2684161493460934,0.43516749101662544,-0.2259865652785784,-0.11801372246404727,-0.23439289175247666,-0.11388394194281878,0.13993754284550378,-0.04514728395086387,-3.7388349128272282,-0.09128042203092955,-0.05890646733076839,-2.193371813861832,-0.012517886437455826,-0.2486919763387463,0.1131329419280698,-0.13865436360036312,-0.3962958574112346,-1.2181938267881902,0.13961070400961612,-0.2707339499741651,-0.2162173952176211,-0.2106647354595317,-0.30972010578384584,0.10700187885923546,0.615662741407146,-0.19129665730615802,-0.6930536487280049,-0.12345079901449191,-0.12824519698598352,0.17490546619040798,0.6013483290275038,1.1102527423221091,0.06676701156364633,-0.09229717167905648,-0.17941329577895285,-0.10977587030664068,0.43496476853833177,0.03674334286250013,-0.2981323261555418,-0.6993077619007276,-0.23625149134006926,-0.2823607008583478,-0.2742151364870267,0.41228759115213875,-0.1771947354046965,-0.23502660444335907,-0.24950120537663928,-0.2956958881906314,0.131286048247629,-0.004497788254456909,-0.28056302011038003,-0.24243929234992284,-0.21378880471854914,0.006583397183153725,7.171558139299666,-0.19458722176005497,0.4243788039663104,1.1551852316076652,0.45015533022387727,0.4233941443609467,0.6574748383148067,0.10921700185656978,3.5188636388384062,-0.11699474573193308,-0.24307480781978927,0.30496026134640036,0.0145216781851733,1.8353222437169956,3.1554393141896164,17.87198106949016,0.64376223302339,-0.15629427090602513,65.94491079902271,0.1773205085190788,-1.1266894938417553,-0.37180664807343516,-0.18820158971070922,-0.49609607472905,-0.2037423833984262,-1.4354567704031556,-16.590781004731355,-0.30563570738584495,0.4565312621764518,-0.1944381872019168,-0.23786030860238902,-0.8233358384308727,-1.5879689252760785,-0.27423428832714386,0.19304258746808425,-0.35997662969287547,-0.3526547050705428,-89.55802963079346,-2.419751155359211,-0.15236906240312195,-0.11139722722127174,0.3198337692957445,3.4266493777916374,3.168462400873184,22.752164565534496,7.738864661299919,-0.16567770838422635,1.0590360304550472,0.2005062583469339,-0.061326098097441106,0.1026315068328805,22.725181878901523,3.450312143419231,0.8290833876671189,-0.2985888826509373,-0.18200710249931296,-0.08576997148970615,16.45458459045448,27.853122850511202,-0.3080989780307392,-0.25728070169590944,-0.13489095884964686,0.7394597679405016,-0.6612175900083204,-0.2155837910503665,-0.13070817896344278,-0.30323283303698917,-0.07548855463717878,-0.21210453851655064,1.0752018170550681,0.32948031621326834,-0.061568947357451886,-0.07587965798934662,0.4934883805880544,-0.09058396950837606,0.04233556671771698,-0.39847958707769804,-66.31876811933842,-0.21870511442072707,-0.27558555218759395,-13.755440092566774,-89.57259619575002,0.02592192172612472,-0.3448575234910084,-0.3633306261373198,-2.8812949834092514,-90.14489399402177,1.7099027016953157,-0.12453342285282,-1.3661616840524837,-0.3496505298178637,-0.2704733198234253,-0.25160999533764206,0.6374182528126763,3.3817064634922147,3.291470061704087,-0.13347774006924326,-1.4322940055072961,-0.27294858496535684,-0.06672389129432524,0.6338499929764231,0.13495425316461362,-0.2278765892692268,-8.414843619047897,-10.063589345266125,-5.3613240619437015,-0.05120940280273236,3.370566804623281,1.1428189255692218,-0.12409928146705589,-0.2787190522534724,-0.40968299099706157,0.11651460532184596,10.377715320361828,1.906298512570925,-0.032633990320911035,-0.24119687522311564,-0.08890567817510771,7.7625076403349835,24.979818760478505,16.461092491299055,0.5926387762215494,0.7701914658095801,6.071131294240169,9.433843310161654,-0.14654030221596034,0.07477857159671862,1.7199389399428,1.0487560814732335,0.18660477465884187,-0.10897076472110889,1.81339853726471,0.8340903212981668,0.4698317727993806,0.6027908932414893,0.283356962631154,0.07477785487485832,0.1629930787947297,-0.1398440768399517,-0.13017511816392668,-0.20171883434890114,0.6119274153659539,-0.07521926230928583,0.023154244256479994,2.4366747787480314,-0.24847327691967133,-0.06292962754627744,-0.2692550569085494,-0.699718579264028,-0.16383275485475562,-0.22986111762907152,-0.18436953879390608,0.2007874415719729,-0.01410392074454027,-0.01950532335949319,-1.2160872348066916,-0.33131134785545424,-0.17822540530472106,-0.12018352878716693,0.6360670612154812,-0.09560400408632579,-0.32528587117383023,1.4389006365307455,-0.28288550076413765,0.08879959104236668,-0.1307495478193081,-0.1246073091068465,-0.21005487419265392,-1.2821877693704047,-0.18105574014382747,-0.1848188079571311,1.0766536031390412,-0.23024007545325956,-0.2039834555268302,-0.6052755785522708,-0.2918254657668245,0.5408676570828471,-0.2750272811493474,-0.2672364447791891,-0.2829925965803694,-0.07963296262636252,-0.6396738934951605,-0.1269785341132439,-0.18340500063728565,-0.17962707626719426,0.12267609670835788,0.14200024374827258,-0.31087767524999055,0.3461129207801152,-0.28863014905872225,-21.57950260362783,-3.2315358413746966,-0.597174485839386,-13.421894508275207,-0.3224725633526199,-0.17306070641817406,-3.4007023306622646,-0.05875109699292107,0.1252232270960869,-0.22913005259002234,2.6682901409023,0.40826198005069364,-0.08749748582723017,7.891308271294927,0.324157787755729,-3.1516692377147515,-0.3417812758941846,0.3906183933084027,-0.23773984686317784,2.7916706207584827,1.0330235695571404,-5.945711597316306,-1.436771972218412,-0.14511246356817736,0.9991387574392907,0.9734272725894977,-0.1411190856250958,-0.23093415595491415,-30.8020907906715,-1.4483093832355087,-1.4499431040742443,-1.2597266177957869,-0.1911363939755041,0.09838128913957253,-0.2760878171029007,-1.5942117207730047,-0.19230011519651394,-1.945132503938313,-1.4182782432518783,-1.281191284495443,-0.3732542459112007,-0.17671938395372572,0.2718503911270082,-0.2501589046819759,-1.3280912932710542,-0.5995677064666983,-0.19357939222630052,-1.5048853486887683,-0.19423987160881612,-1.4760936825442723,1.0433368105787382,-0.2670869066929716,-0.43743031614615163,-0.027178847977010666,-0.2763229002217847,0.27568440627204593,-0.19153261057321275,-6.281287961773173,-0.2801147946594981,-0.38899574630270833,-1.419236032069867,-1.3508650330800933,-2.445679731335111,-0.24468796765934234,-0.037323214300583184,-2.7794393983818377,-0.18357222504588405,0.17813119597268787,0.2744467853616047,-0.37714855525291024,-0.41294265375461403,-0.3090116814078316,-0.021696425223188456,2.765676399511202,-0.4398677041451604,-0.25378206005061615,0.09095445443241791,-1.2469886519151987,-0.17695045274743038,1.4765058514132856,-2.993740246214624,-0.4100451376173863,-0.3140066495683686,0.1473098381507088,0.11775733532944724,-0.15735089595903026,-2.787649569708314,-2.311352913332528,-1.4331069005256423,-0.23772326564878946,1.0384103025763245,-0.0966269189183376,0.10937235907816567,-0.008153509927858793,-0.9006712810314822,-5.054848378316515,-1.2093956823491392,0.09773927397421796,-0.21629271772977146,-1.3573915070104992,0.03166480510209928,0.2163371590549796,-0.22887478802657343,-0.010960649565339,-0.33146274071694903,-0.16120539719351984,0.1293894282255696,-0.2555823968715266,-2.100645836923458,0.10015895996733849,-0.10392854534153509,-0.33731667273962485,-0.06646561298170262,-1.4433848931945978,-0.07323909988983379,-0.27272343657304854,-2.7704707618694258,-0.29926503032598256,-10.141552850467203,-1.402079076572472,-0.2893739431672335,-2.4170103307494095,-0.29675374683026906,0.025184274718052194,-1.4536162191655129,-0.2562929232185418,-0.19956829440661453,0.10857203903744027,-1.8321061018095044,-2.458587051451228,-1.3862556365509864,-1.405402425458284,-0.18629116287179517,-1.4406408029632658,-0.28406241230836043,1.086875674752196,-1.311676555420193,-0.11702783153252222,-0.19964058035999507,11.327045158925717,-0.43268827517727737,-0.08977768455693662,11.930111418906586,2.8319860121852076,-0.16154425533368402,4.460509833970454,-3.0495292621746715,-1.394291703838726,-0.23049276434546528,0.09747446587325555,0.30562256877322147,0.1424089530487744,-2.451903138225087,-0.3275090747021945,-1.4420571496769972,-0.16432912746878353,0.11947371241092146,0.11755906445335092,-0.18229320928040044,0.13636662894947849,-0.11335892934958676,-0.23075129465486266,-0.11098869768761271,-0.6812439233412074,0.2049164186038177,-0.036955591970046414,-62.926213994442634,-3.4716479700583265,0.9386511474587819,-0.23235866634510083,-32.49469041170669,-0.1440554633525654,-0.39619547456863236,-3.0002932274975604,-0.25731304794381615,-2.9438737132965236,-0.281897955985983,-6.323184989242066,-6.299489340115309,-0.30486520749410745,-0.9738693805254424,-0.1984616927219455,-0.19764733363956993,-3.2192478900611805,-2.43661153137036,0.42596526907507754,0.13730427385420657,-3.002927480775822,-0.1447784648354399,11.93350514225912,0.15483562415606714,0.27051797103803155,-3.7819504035187723,-0.6766607329784073,0.14592262230791178,0.8778113403532809,0.6344514517582837,-0.050932720526051224,-7.690199357592582,-3.8996934149652556,-0.22893918395382412,0.2454979234476993,0.12822183136023096,-0.09408037103309286,-3.6842328250155463,-30.622751268526283,-1.323594088924985,-0.2085712444127953,0.02475112536753676,0.4522335962115239,0.45344971774271264,-0.28555623009368886,-30.83515826869505,-1.3407738879060391,-2.665676056358876,-1.6978910483579062,-0.26641417831566405,-0.33752521371974453,-1.3139677681628894,-1.9882757582997137,-1.4117801229766018,-1.3353822517930938,-0.7458428933573589,-0.24932523745308213,-1.2330273175518507,-1.3202367894720903,-30.85434363199708,-0.24951335918868187,-0.27276978424732395,-0.7144573160145252,-0.01922613800591878,-13.27689730233818,-0.2588733995094332,1.0494432953101105,-6.250724193140763,-0.3108275950940736,-5.400220528017472,-0.17684306987856488,-0.32226493391637795,-3.113303573163408,1.480554894621412,-0.19238347827082314,-0.31087331039647537,-0.11982656724517494,0.2858527911839154,0.09390365001814562,-3.555236829839153,-0.5556194888861209,-0.16210453013922338,0.06126927649586449,0.08369338192497186,-13.421756149814168,-3.432428854418746,-0.12976922374832794,-0.11825294839105972,0.10042587097539482,0.15480664214639198,-2.2455399047691937,-0.3386355614606675,-0.5691446583464433,-1.3180200165376645,-0.053691463785577806,-0.19301660298387643,-0.3210025853846044,-30.585518341733103,-3.9201033963932006,-0.23768609095631718,-0.1878563528730018,-0.24246538415595412,0.08646665507032558,-0.1329073539948288,-0.43998124565055036,-0.20359004529447983,-0.1512962164559866,0.11551820271110982,-0.1666716739523438,-0.1375621705041932,-0.1926918955832636,-0.22135288915184517,0.43415049177721027,-0.2708933959473682,-0.23603377511448603,-0.21427818304410956,-0.30081159609557684,-0.4363439626540733,-13.400151100612772,-0.25787654411660826,-0.32379667248114447,-3.4402876630472012,-0.3439071549321636,-1.7191630038994374,-3.240059543819029,-0.19314087463175764,-3.352736192726502,-0.30563605055018805,-14.827168762997369,-1.3284932294194696,-0.21392569582035784,-5.460640624677648,-0.10054723239403499,1.0379188079617068,-2.389861360425347,1.9219304205145216,0.31836900122939327,0.18135388165118624,-2.464979589723641,-0.19995468973372524,-0.1933160500012551,-0.14625681531578932,0.13489510565643908,-11.14179392484672,-0.2030280684114412,0.18894812195972344,-0.1734738318753477,0.39675152381491113,8.541067772025459,2.6788744870175614,-0.27929222624475764,-0.30165248554298274,-0.23171598395176776,0.136178997763525,-0.10983513048915185,-1.0280624102899183,-5.399421260093165,-1.982100192965661,-0.21763750784094257,2.7912515456534357,1.0120204918581277,0.9965540337161266,-0.043015954902288336,-3.1321179318857015,-1.3119214943724724,-1.37418963420093,0.10281602259979358,-0.18285424047877297,-0.17723332409521128,0.14214373816036058,-0.4206226711878926,-0.4644599443442103,-0.43613920883957796,-6.742743825701772,-0.11708016746194952,-0.20816030973876912,-0.3066049174945272,-2.4056039166245675,-0.05263294126681754,-0.15718207772591403,-2.4038737355697988,-0.0777963752857674,-0.2870629030966813,-2.447379987460785,-1.2297359884741914,-2.959904070185123,-0.2754451330980771,-1.490682789886928,-0.3301291264322366,0.2664072082626338,12.216499565371652,-0.18654488406615174,-0.07434313579466695,-2.355400667486795,-1.1696623609438281,0.18975025288118885,0.08311143100541837,-2.389393525117418,0.5619799045426379,-0.30767116691726154,-0.18521852967002847,0.1649252487227651,-1.4678820896801783,-0.16162590321655107,1.0841515740206253,-1.3616866322177168,-0.17955335527121158,-0.21903423320478657,-5.420996790002491,-30.822173571868205,4.144130870276968,4.172617260531692,0.10348503599128336,-0.16486753814790875,0.24830722251365314,-2.4514608442770545,-6.302677454664576,0.10534374552385008,-0.19891928617017954,-0.022204098542361297,-0.09479590808193356,-1.8758761580862904,-8.342225469307735,-1.2997627942020948,-0.1990484798837492,-0.23291950256420071,-0.0030775830927045884,-0.28888715523532277,0.14759118973081314,-1.221752211431644,-0.21439825317718073,-0.3466312711012878,-3.1428106587636,2.7254929725332304,0.11991456800484811,-13.456244085655547,-6.408120302221265,0.6181334034983023,-0.10702732204966016,-13.380431241894978,1.0029323031293125,-1.4034196638537562,-1.0875065234244086,-3.1781638275657462,-2.970854848652388,-0.3041574039619662,-5.29053455567443,-30.640584361426345,-0.7435068468968221,-4.135641820128686,-0.2189529729626669,-0.3442537541926555,-0.23795245714740923,-0.5936610893007568,-0.22137630317865742,-0.5978535918465754,-2.3704504427405135,-0.02590580490216641,-0.5747553320962765,-0.15461180160335394,-0.024854854365429353,-11.134218425420952,-0.23510770519674934,0.13430731964038883,-0.12970638742214463,-0.1868266920852672,-0.1831059744223528,-10.191842749120905,-0.3006445460045571,0.12701862740188025,0.4478095855993887,0.12256852701749557,0.18592564841882397,-0.1542370548452097,-0.3174965991034695,-0.137944774261256,-0.047688929407214295,0.11314986935635259,0.12601482174572437,-0.1725742298525868,-1.5330661405049673,-0.2670485500129917,-0.17874225635524246,-0.22041300940095973,-0.13234440704916373,-1.3641309881687496,-0.3079684760056626,0.1419998611065644,0.1751676393280106,-0.10320457866167519,-0.17059564935089608,-30.371631692084584,0.08324425652194038,0.12097410255802123,-0.12882820244066034,-0.2807478289694682,0.11887142978075828,-0.13398233879167798,-13.424455111237874,-0.15093629379126652,-0.4402307867994512,-0.295437034310454,-0.26152340483280107,-3.408111757554751,-0.248815159431396,-0.25563472702796736,-0.146284156114896,-1.275779686207577,-10.424470272560606,0.024543936376377022,-0.1911748136311772,-2.4382245268645577,-0.22737300721997838,0.0671774099174384,-0.25052876402876867,-4.907937039233755,-6.260833143271847,-22.25001431692337,0.002396384876080446,0.08317232412573518,-1.0878114450999654,-2.358286686964547,-1.3132111220240354,-0.2484298290305818,0.13708197610348313,0.08354710315082219,2.681087313964309,-2.3838379391042297,-8.366483712591418,-1.4396031924005024,-0.2325980094842307,-0.07021160016169312,-0.2911024238064455,-6.257305657173565,-0.06581525923837844,-0.22437843783290592,-1.055942133108988,-0.20449108115241402,0.6624760880793213,3.045213932829853,-3.732488475266233,-1.736374781622953,-5.385385794486371,-1.6370637795592902,-0.18361486253711284,0.11421315219585003,-0.2576813288332692,-5.496011870819332,-1.417200660858799,0.09255892654636812,1.5873595828356761,-0.17335992921434548,-0.2210854070243545,-0.12223213256153533,-0.3310150050112046,-0.1941502194451184,-0.09581254009604545,0.09466929854649306,-0.1800209952732761,-0.6058379873447154,-0.28926317566336895,3.052669081883785,-3.168628292590505,-0.2872686916128608,3.3892517586792,-0.1584134379932683,-5.058011066566051,-2.3568283890773625,2.995797821586991,6.178759699869054,4.839080646501716,0.01297244835096549,0.1723930984907805,0.9774656631357649,-2.626722533904249,-10.117860856312923,-1.93012100605104,-0.2406621922480817,1.0290747853249695,-0.14466593957203497,-0.6201114289233636,0.10385445218842114,0.0921984682646643,0.10314901127806764,1.4872687308969748,-4.734472882269511,-0.23533976969204504,-0.3270871320330733,0.14820758686255914,0.2785040432223818,50.66301801883021,-0.2535331648542429,0.40575959319991634,-7.323461969103273,-0.2482103943454749,0.1321712961228638,4.165847188129182,1.013477413918668,-0.08292111776212012,-0.34094063168303723,-12.439763119355067,-1.3745551859686327,-0.21040369609805326,0.10427640879958547,-0.1942639131345853,-0.2444625217909434,-1.4632159603329637,-1.2401602378568564,-0.42960379577138547,-3.4574049828815645,-0.26626510474249515,-0.3048621035199246,-1.4084499872675105,-3.423477655931468,0.14499336191061143,-0.21312544390726262,-30.760197395729172,-0.11458365614532648,-0.1853560372403067,-0.22062734541988824,-0.16452292837029878,-2.451362833852275,-0.297198855162734,2.705307070592522,-5.062225011253509,-0.10153801820251598,-0.3485950107499266,-0.052518667579814625,-0.11291774750128564,-1.841262817348979,-2.47804016729611,1.0515764232559113,0.139491504766079,-1.8854662433934,0.4013997043491953,-0.21274872311650625,11.500045005814941,2.7966594224001953,-0.27898230992541545,-0.12756624184771917,0.3931059693429642,-1.3354851767529,-0.12934309722660522,-0.19799905222704872,2.7159201693941175,-0.20762476713452915,2.0841318713096273,7.890511751436738,0.2274621269603764,-0.16338909929631204,-1.8322711793661526,-2.3827006661429078,-0.2726235880636369,-0.1768943389396143,-0.2304272369603322,0.20488680693498132,0.4465250983940437,-6.392711829876167,-6.314842867900212,-34.643734080625684,-7.592867081727383,-0.38343421277556083,-0.14199927633749596,-0.02936927917592306,-0.23185765202867148,-63.02231064984828,-1.4844026695023065,-1.4729283982337122,-30.78515241911027,1.0247916708228042,-0.20187494562787278,-5.053328880361537,-2.4621620664471635,16.664802015093507,1.148381413157918,-5.4661051697233525,1.456286959023967,-4.0010010631776876,-0.26898506342106665,-0.2543960090803554,-2.3653760543843507,-0.32409098121247265,2.6875911458702313,-2.962926596360917,-0.1937676807623035,-1.814375426078639,-0.2646418731059585,-0.283410330780373,-3.4376562164459012,-0.625361713739167,-0.2056689412964951,-0.18882085124217002,-2.259533941959922,-1.4099322282242763,-1.4851477138775684,-1.424969500308476,-0.1868419809502821,-0.2985589806732426,-0.3262267059736038,0.2471841739276653,0.07967133439640549,-0.18627990577459322,0.009807149774078972,-10.138484112212705,-0.3219009906843405,-0.1295986360733848,0.20656197741182225,0.23832692326606858,-0.3311436863940821,-0.25560983321677827,-0.30274102070862885,-10.364474832708154,-0.20652559859851113,0.20619302301970102,1.0356917442064761,0.1102827488890571,-0.24658596612278627,-0.12941933564605423,-12.463416902379267,-16.857754992818172,-0.18604319914404224,3.0604845010638186,0.1481019241149777,-1.3962708105348587,-844.8610088980806,-197.92940224536912,-0.31084188837913246,0.4728030482387755,-5.4009760276651395,-10.020057655914897,-1.3365213916541985,-0.21682881937875279,-0.24716657892090002,-0.13590826969540742,-0.20348140695842173,0.14023925869087522,-0.32234347522687823,-0.20318960230305178,-0.02978639331315767,-2.9400100814102097,-0.29287816152348695,-4.854307628669211,-0.2050705133632617,-0.2856939260065377,-4.6481287150101425,-0.15775356889520586,0.10836052600179824,-1.5055177452399864,0.05143686560962456,0.10951367246706742,-0.19218630344604806,-5.317700966433314,-0.2213077835344709,-0.18209317902766545,-0.1162032649687258,0.14149233550544124,-3.2090859942774035,-10.163577610961754,-0.16539315939678967,6.185228226847414,-0.32251234819491087,-0.09604784725647596,2.6974345527054475,-2.948345827637962,-30.860471988662066,-0.1514734463629524,-0.05873687312311454,-0.2028440607610708,-0.290960458690819,-2.723772991993767,-0.5880589351275077,1.4557271054394205,0.9760821753217074,0.09609124462328601,0.038773580709674585,-0.07950349451695062,-3.404417166101019,-0.2322810528631595,-0.14317040688088087,0.17967177195764894,1.0137370816825888,-0.21922118747373304,-13.496822026665072,0.07427338657247193,0.13797359582277371,-0.1329956652440049,-0.19266850166519164,-281.0252338533633,-0.7497282066962134,-0.17891611040007155,-0.33020886161450536,-0.18027316402162308,-0.2858411424382784,-0.2749864621959303,-0.1864315296688403,-0.300777444691072,-0.3138828067832867,0.05738537638075719,-0.34304912552398087,-0.28627716071454945,-4.897249781016617,-0.5920417697854468,-0.2891773882380257,-81.9688543650608,-11.133837853913745,-1.5205488688202677,-13.365096971049189,-30.42516563987263,-39.26280631284273,-22.94068112134219,-9.112192690442892,-30.78007582700593,-8.306886193241011,-12.440522303814252,-1.585417252655361,-0.26971606662193603,-30.778982902884096,0.19719205922828184,4.639088042233477,0.17594919795782438,-0.12255835927756258,14.066728399742729,0.04093706352474831,-0.2433770972130892,16.65522837522256,2.7689562144191995,-0.3016035744057913,-0.29780331252845665,-0.17237775886826362,-0.2806544708037713,0.11896405434050071,-0.16057805036327877,-0.014618052930293009,0.06250766887336498,-0.3780507533815632,0.45955792369734894,-0.23077273917565347,4.347197071474078,0.5574012995922429,0.050026125030464774,-0.13318081754772207,-2.524805990316998,-0.31551046575590613,1.030867474894032,-0.2529859275411443,-1.4184806783492458,-32.8063918931394,-0.21315846009559994,0.1920105937764247,-0.2971044268202629,0.14393649521437618,0.07430021459821061,-0.22470833955579778,-0.2078889590145025,-0.26605985179778335,-6.401521769997193,-0.14034687103756757,-3.370629403156429,-0.34379500973764804,14.068544396408129,-1.4083185962704188,-0.24438859111685435,-22.024744418072526,-0.2856608928767164,-0.3184418814397205,-6.315391419564247,-30.630251350340576,0.15249375560526074,2.811675333545723,-10.171558720373028,-6.425138940044694,-13.415357621803418,4.712117003604482,11.816545691695696,-0.3399322279548287,-30.386128036205484,-30.414164218116483,-30.904065311833847,0.09014933637304712,-0.5692639675075182,-1.8072899050656246,-0.1889647116256587,-0.34834043586032426,-30.00102915846694,-2.3026848596098137,-0.20637000698374008,-4.395315931695331,-0.3308561670093437,0.41171293022312094,-0.6259572638246692,-0.18158956389967207,0.1167711738866308,0.08087723439271392,-30.805321413917586,0.03640521480438756,-0.15395747925992234,-1.2539263609031068,-0.2312629313012466,-0.03575151640262651,-0.22886191443311596,0.41733137812527327,7.948490651842216,0.17032096798965002,0.20146430894458545,-0.1732730287791169,0.5772729774700944,1.2607302874315525,-0.0514345961740278,-0.27996798755797414,0.09465876905984671,-0.03892002577676678,-0.4481646747633936,-0.14563041195674192,-0.1957612675517421,-30.931787942606714,-0.30832339839321804,-5.308309266630376,-0.32452531322344685,-5.423591717072352,-6.194827596434671,-30.430806882749955,-2.4642043212276326,-10.183699638657377,-0.48070238504397966,-5.44579727066663,-0.28643312580830177,-0.576148080839728,-0.3428754447843455,-6.2928104650322405,-0.2694723305473915,-0.4241519307948367,-1.3598433277070936,0.028822721537156155,-0.27427487806410134,-0.15904282173673903,0.12547068336094436,-1.3500908964095524,-0.08101073347719485,-0.05438158626831594,-2.9900444230150223,-0.3241191877606877,-1.2510416584911686,0.13133674661689482,-0.01723212688724998,-0.22116549090734236,-0.3024087528626495,-3.4211481021926864,-0.014698146084995832,-0.18016615581379267,-281.0636770731271,0.14486992269671467,-0.25307840090412964,-0.21804824950389282,-0.2701783374962219,0.1358270178931644,0.10692802456262646,-0.5882790517361445,-0.1891037736417824,-0.20028487204050874,-0.20415649769656735,0.09801056802528128,0.14912326789150884,1.8857441798839374,-0.4440890631086402,0.0906383357398678,-0.2298886379664929,0.18891362156053249,-0.2959089324897645,0.08169328953471444,-0.18959623667459669,-0.1307059560864893,-0.21330747835856015,-0.3993229084295995,-0.2593828113415744,0.25297279583340737,-0.6254138251064064,0.010530510480076775,0.3696694605157078,0.04848993136350986,0.05065397823842294,0.09224668917462447,-0.06313759816807943,-0.07605953995276524,-0.9216249462518236,-0.15642351071785052,-0.1598436524911091,-3.2169541701733455,-0.08261319013005464,-0.7450104430548791,-0.20703113387857286,-0.17558030716014242,0.04167202559125124,-0.06805581451105176,-0.28431456796328647,0.05258620570527574,-0.12962607231458295,-0.0060094521697877205,-0.004191954735868383,-0.486887288493238,0.02446183597817707,0.042872306271259326,0.01010199975575772,0.005401067560961665,0.07245127231727663,-0.013626030823923451,-0.07376085141564895,-0.1919952900721982,-0.04765217827415154,-0.00955016175102796,-0.2172326998351655,-0.6989239126992385,0.0746150209097881,-1.801271651394204,0.08183124835332649,0.21135115030042703,0.04617823815302165,-0.224362491968591,0.0741554644880988,-0.35790639606794783,0.00798510762776063,0.029982305588166457,0.04094609467298444,0.05764170441436925,0.04160182058537545,-0.15187304384095826,-0.08964663990160338,-0.10974416425551978,0.026177206844206522,0.028659595667630728,0.016678818172545476,0.07859141582044228,0.08020353356435973,0.07103267660002359,0.07984896837492884,0.06248975484238075,0.05183070466364161,-0.8948742705665664,-1.9751918328042275,-1.907166247101225,-0.00037293550342810977,-0.2225502857894426,-0.13281488282150583,0.013636763008868279,0.06615593704296503,-0.012672183457699633,0.09618692317274496,0.008238739966341422,0.06909550399028563,0.0317466699384362,-2.105158875771535,-0.7047716855479674,-0.12731937362650173,0.016556753261634746,-0.009126349294721597,-1.3323700326512342,0.03764765411542028,0.027172880754469806,-0.04847861110763216,-0.013864866627423117,0.051284890987781495,0.05818292263467951,0.07328443874646433,0.03335055784068952,-0.04673161368829702,-0.03383648208742254,-1.8950863379384457,0.010710745713311438,0.08036318636742956,0.1004327690699855,0.006393522825483974,0.03489098106635602,0.028786407350447876,0.9264829011576202,-3.2443274621615044,-0.5697844643587827,-0.364220919813649,-0.18308507347447395,-0.12131780228683457,3.700632905150421,0.25228904083040266,0.0951932521859146,0.02915790261351566,0.0941230509766762,0.008250727685649675,0.0808840636628971,-0.6319501527822393,0.029039102372088253,0.044842428023729446,0.014191441734689026,0.02326190603861275,0.0017486213958366743,0.06919159100183715,0.035402255051098924,-0.019085603457303094,0.016918282153026334,-0.08283722716544681,-2.103249275617491,-0.2037997195290671,-0.00956910401918222,0.012479543232028076,-0.45511381926211864,-0.026285933392416975,0.016028435748707888,-0.14084012835924165,0.04290256311834608,0.02985702502216001,0.01444469425968557,-0.004072664760219971,-0.3353544741666148,-0.046420735511242636,-2.112444987729067,0.04883319482331336,-0.01326895547687249,-6.167682953298223,-0.1619086980573307,0.0742364361261157,-0.7257270912823789,0.0042091367920868,0.05530731401704657,0.07489717299164876,0.06291766794938697,0.07873855718719991,0.03037649284855855,-0.04306103328660266,0.021540130066332104,-6.182269415805835,-0.016713274048019835,-0.09573412060082691,0.05420596661762779,0.044384847989190485,-0.10188524212162992,0.929874054208649,0.35764363973245805,-0.06561773231153237,0.025387624342971715,-0.1478336832269167,0.08032988059612196,0.05451592748073162,0.9335493692419694,0.07452126430968775,0.04122913236763576,0.07758724696751668,-0.17830936593825822,0.04527742893929514,-0.08282218184462911,0.08480441961441469,0.005569786286171652,-0.051192760115350275,0.029027002090846448,-0.012775862777747466,0.009551954294470715,0.06076275400002999,-0.035255377024830815,0.05298908292928603,-0.054896343360534054,0.01791303913736586,-2.0515539192141814,0.006582284301396465,-0.9034183013494129,-0.11336958472439455,-0.031739766437543004,-0.0008696448395971749,-0.10884063308120848,0.001331605079577007,-0.003025765106811369,-0.11577345148670107,-0.5931263255566381,-3.8599209687531877,-0.1446873545561126,0.02142729300132883,0.0416878755186114,-0.03350889647200285,-0.4317993251756465,0.01890544654419828,0.011467334084745878,-0.002816699480954196,0.016714351823128415,-0.23831546525031416,-0.3116444726724221,-0.2121037911513,0.08957438068760998,-0.05011052230187453,0.052805699320877815,0.04925092206415143,-0.012682288508851851,0.07338587731360317,0.02632122633809801,0.025070224394535254,0.08425169221388312,0.05518307562174203,-1.199845229149375,0.025757262970224067,-0.006364901761716296,-0.15143184351672045,0.0433010199383603,-0.33230048766954323,-0.056326361115827936,0.23263221470575912,0.032732752676366106,-0.18744007454981826,0.08283497900209467,-0.014341317432688565,0.07495409961692463,0.06905305804343179,-0.0449433608403616,-0.16072308067446622,0.07043957954277327,0.019549037393037514,0.05015331893487056,0.07426957886252508,0.054981935073009386,0.00914861410588625,0.04407846017659013,0.06225095538609777,0.009391890367098426,1.301916335336032,-0.04379284566522912,-0.06105956546044401,-1.1433632039403776,-0.059802413648574165,0.004919969514497847,-0.34126086402572664,-0.34124670286248227,-0.24423621599188955,-0.029640108129149405,0.037877679938822656,-2.068968018334341,-0.39097853306020525,0.05068985193306284,0.074683226399848,0.10518099490855723,0.04240289415965261,0.006234374531154899,-0.010678039316372184,-0.13429800333174055,-0.0059275145855224995,0.009533714119124844,0.04102034318954906,0.06320314612002022,0.042294294432570996,-0.008673802098286085,0.0018599608383425273,0.07393137699703205,0.033264165229853704,-1.1369773472664948,-0.3690985098762103,0.020636985036069175,0.044963015532172246,-0.009163806209905275,-0.1608613465680992,0.0743693105302296,-0.024481519047119104,0.04762417729675072,0.0769581844023701,0.0761430611377957,0.030669224130023057,-0.3331790000055332,-0.005871641793472938,0.024200515163075594,-0.02356423243630264,0.05521589769406807,-0.08339746300318913,0.0246584974190158,-0.02789674642552716,0.04778158429056181,0.054799408985033646,0.0748591516330904,0.08526416366072999,0.04441779360137496,0.006635510938910454,0.03855413975996541,0.010821741937536876,0.09798561956363501,0.021931782633083905,0.06994190986105725,0.09458656967622299,-0.03921760957684043,0.06791338464541813,0.05988143591910774,0.058385225958962124,0.009038147419535398,0.00734349356394668,0.021692869479476674,0.07914230198643478,-0.019645682048231587,0.0025267904636854413,0.07178287649708166,0.0660194146354545,0.028141725353587048,-0.3038289495124,-2.1428234351029456,0.009597644289675786,-0.0003934732714060653,-0.021180058394329137,0.03994655008237141,0.060121769794264944,-1.2083002283450555,-0.7902617014507081,-0.016053849809078955,0.09629350451960887,0.03773093734492602,0.048395075074512225,-0.010233211054538543,0.08178330404993361,0.010957628021088238,0.06607675788048627,0.06858132325299972,0.044528000609357944,-1.8233398833840362,-17.9112181681715,0.06256495317269473,0.0070986789298043374,0.012036995223353254,-0.013783676370730935,-0.17505929061192202,-1.1515190918955422,-0.04324733684389139,0.10589691344324256,0.03646482084176946,-0.007185269302629386,0.03196769817614652,0.016112403223029387,0.045556961239117164,0.054321360709358196,0.016145685727224527,-0.035752176686792925,0.07382979201004479,0.026380969615296936,0.04340840506426284,0.059909501611961895,0.06693103259427775,0.025682721719489637,0.08959981567378537,0.04935583838969139,0.07545857547867856,0.02385035293913297,-0.056565693094323494,0.0442193317813753,0.06979259676215299,-0.008162656883324619,-0.36630299816903955,-0.046665248923331515,0.03142095743836499,0.02891142182266074,-0.23014785859943668,-0.5819664463715776,0.030965291132294865,0.0824932262933918,0.01598146243981625,-0.08720270983537508,-0.10419481406135302,0.07910072978852663,0.04398388562202018,0.03649825094551715,-0.02299612923051046,0.07860680872936276,-0.012027470914347334,0.06451883540857119,0.06102034237481552,0.09453402034810589,0.030981204467262474,0.02621843378958121,0.04008753552310879,-0.005838215522706421,-0.11082311533060041,0.08454645636223235,0.03313093982184667,-1.3170089960389624,-1.1744685500400622,-0.02955622931135742,-0.12730686096347554,0.08667978874495401,0.07491569261603785,-0.6257190558373374,-0.588374725645453,0.0552233034111195,0.0459107966644628,0.058058908626122216,0.06818258994373243,0.034125445865463934,0.022187075272603413,0.06612670679851394,0.012152613563344654,0.0338679034145168,0.02502697129901967,-0.19725218217934132,0.03840237536066748,0.04778152629559995,0.04530807021637689,0.05466872657588599,-0.03880437498121245,0.05684307035055003,0.011247735169181134,-0.016104810102652956,0.038750255894708485,0.06482946392017556,-0.9210298184808251,-0.014327960178467401,0.09099388943341473,-0.03161122420396095,-0.03557422239621401,0.07405063689794375,0.03170729853110086,0.020375070436366636,0.03170956414365958,0.10156890932544918,0.02338208925832026,-0.19133275243991743,-2.086937430494551,0.010346244575195646,0.04777844096752608,0.03138706283054731,0.07748974129913981,-0.5823630899352246,-0.34066997675013655,-0.18656636370808471,0.022559061737378965,-1.297247809950658,-0.2913993423427332,-0.05003342177355806,0.06914853919798643,-0.2026036576105375,-0.023642656078166454,0.08495365543806309,0.0053103217666857295,0.0647154315434382,0.02392714937251965,0.02252419140861464,0.07171531448822588,-0.0023455858988483055,0.0024791398914767258,0.08409119313833383,-0.1278572504130742,-0.13085098442537152,0.025839198644027766,0.08394462051320352,0.019117461208338068,0.07562118968963248,0.014804973059706352,-0.10530040536132473,-0.15895871223121144,0.08344053190844862,0.07619363257798639,0.04515716300507361,0.07993184368934107,0.08810447833656554,0.036500660639575314,-0.030186070883989204,0.04504367033274774,-0.2746419450688246,0.04806105485943833,0.1376522485610725,0.5259493633776906,0.07144460956820807,-3.8433785882491467,0.015232807419799793,0.034531481816537785,0.04564397589896074,-1.8940115250786613,0.023403625917186473,0.03297039890712922,0.5263932808334513,-0.10592260839170685,-0.02301362514624022,0.011799240195404785,0.0420207989814087,0.07987789356764556,0.5518482760138392,-0.014241691404475322,0.05925803191219324,-0.3012983392338191,-0.023419203808205565,0.023413303830592147,0.09056385340503821,0.09870260081331586,0.03271333238741852,0.007622644912198461,-0.046970058728668676,0.018655399258695252,-0.6822989395069889,0.02006864004404798,-0.6590786167928184,0.011769158684350536,0.08712622491305919,0.06917608227144696,7.682294030843613,-0.7813606204641496,-0.3551507130516091,0.033927582892344134,0.04576144598409686,-0.038098795363270946,2.9816075755467204,7.560289901040376,-0.06629375218632147,0.05304998504606397,-1.9888143088882804,-0.19418642313370338,-0.002493066464888278,-0.25579985012979983,0.009479790701344994,-0.29168408657474226,-0.3322823661923155,0.03670556650487174,0.059199371257228565,0.035604472906502746,0.010447215892983716,0.03543666120060825,0.04677306932919936,0.02608706975084153,0.03401121420393203,0.06925860825345259,-0.011995718478516,-0.10093301159282754,-1.3586907348530541,-0.07059542911094566,0.008740595531616765,-0.18588054728400663,-0.030548089981654605,-0.11356007028248447,0.07988403035594434,0.06813766512245871,-0.11551907446949367,-0.14475279821278414,0.04952156237037554,0.01231793358576037,0.09381833465418157,-0.02172601616241639,0.055844379010014884,-0.381929176851747,-0.04910276726466864,-2.0014816906152135,0.028223206198431678,0.0714954262337071,-0.0007901420895868338,0.008481132232087974,0.04241147624029533,-0.01669258461894581,0.04949467839952931,0.01560901833715786,-6.962114152011829,-0.6073999468987478,-0.630600225104236,0.036907807529023395,0.034414766181784705,0.29480356120338386,0.5540542215594562,0.029544277518319634,-0.23258048226386682,0.07858367583029506,-0.16371965613776795,0.02364685741132319,-0.011402796230803184,0.09784302615273846,0.1028784542082745,-0.1401208071907073,-0.5922622188076244,0.02848122354408208,0.07959471665107294,-0.14256743030959668,-0.1857483555532255,0.03625246731480895,0.07879374425970913,0.06379228429318774,0.01917967733198575,0.07128138343598718,-0.0014207738296816057,0.005947494098797897,0.04350670660691607,0.09681977745554957,-0.6754570033286836,-0.039281978613893216,-1.31337095855332,-0.01580334725660761,-0.23608916520659823,0.07022810347245625,0.0176172912782063,0.05230788264494933,-0.008808423898743043,-0.004018223779910963,0.02454119734096446,0.08207397299709654,0.07935062390084147,0.0015797068717484162,0.02159306630764994,0.03092531222438891,0.07196169303840463,0.004805307222094649,0.038693075823770795,-0.0059142666919885295,0.03561439554008025,-1.2933323419143854,-0.04582838936335708,-0.6255685839484132,-0.023367135139532553,-0.003428032816501256,0.02190588326023079,0.034698933274267735,-0.0023079559750410414,-0.36614612334292373,-0.3920918244912608,-0.09904745742043888,0.031410291629719186,0.033263374574389507,0.29384705216791457,-0.004606169541787115,-2.111099810067192,0.007963581647901506,0.06118044410419162,0.014359944018237753,0.11720425925545054,0.28841861682547104,0.057685988691685806,0.04137209613278496,-6.091073596805567,0.01787890144523642,0.01916787392348813,-0.0486287810110278,-0.15012209851901745,-0.708071421684331,0.010281046871167062,-0.08931149444985814,0.044443574872904776,-0.2043424924081661,0.0010180411334398376,0.0016743503128116874,-0.00021347986607271157,-0.08067848607141481,0.02056314852575879,0.022075235988791082,-0.0228207409187909,0.0494073602562333,0.056287547514803984,-0.004987325145758204,0.04684096884919073,0.08854889638117328,-0.04686282457232997,0.07728608667708349,0.004029894136074025,8.778053161565648,-0.2538434050852665,-0.19688321920864044,0.011313607546890222,-0.010109460743848848,0.06959116506853313,0.3269462129003761,8.663851255408515,0.01868871910491419,0.14691324562225752,0.04132524332083041,0.005585935068815126,0.01999990411157154,0.03390784845829543,0.027852517690972793,0.040701369212047124,-0.8902076185854075,0.04428402784729982,-0.20987223420478252,-0.6776873564535133,-0.1367091694124555,-0.1238627974101117,-0.005503481802934979,0.002157197372814546,2.678730268130309,-0.15070845223555818,-6.196145507835753,-0.09234203369545299,0.05744844381554322,0.052385728441398244,42.884438827777416,2.9763187642151308,-0.6728160664917017,-0.0194483760774941,0.03239259803420604,0.008173890937837797,0.02163810123280192,-0.8481917570062542,0.06295580073019218,0.056861418524266294,-0.06176384830205752,0.06035379901182139,0.044910820591248596,0.09460213028863558,0.012501394546203415,-0.023243366598743827,0.061048755479055625,0.47596429308213056,-0.06254322889267115,0.019569021016380098,1.3445914909842729,-0.022776950171601595,0.0489895282148565,-0.19699838534102915,0.0072691172793445434,0.0681551184450379,-0.0016015335971969746,-0.014697014356523808,0.028243619604851215,-0.038445515439841864,0.03436058798806903,0.011259839328565044,-0.03367613514233034,0.022268940249201626,0.0025698289972772587,-0.23991735687980814,-0.2525329908880051,-1.3291398761480773,-0.21925308384484646,-0.26230162810515895,0.04564365187666758,-0.3276824715946231,-6.152347735662155,0.043343571128113906,0.034480638459256474,-0.23219665578879045,0.0299293875912575,-0.046531025413463364,0.05756113446668279,0.005545982923682635,0.01579082673979283,0.011003047235446019,-0.04676393412657355,0.09118249041281644,0.009278567583262246,-0.7814997024602764,-0.009393714694715049,-0.22905509103093333,0.09992475535042525,0.11946397519885661,0.02137536068986487,0.030026410626777553,0.0037788850882562266,0.051940555579151816,0.11914821375649544,-0.6758304711657377,-0.05346199184530829,0.07637203362888804,-0.034789649658382146,-0.10010612112322237,-0.0030789413114688615,-3.944173144916615,